{"learner":{"attributes":{"best_iteration":"186","best_score":"0.17172078923380688"},"feature_names":[],"feature_types":[],"gradient_booster":{"model":{"cats":{"enc":[],"feature_segments":[],"sorted_idx":[]},"gbtree_model_param":{"num_parallel_tree":"1","num_trees":"387"},"iteration_indptr":[0,1,2,3,4,5,6,7,8,9,10,11,12,13,14,15,16,17,18,19,20,21,22,23,24,25,26,27,28,29,30,31,32,33,34,35,36,37,38,39,40,41,42,43,44,45,46,47,48,49,50,51,52,53,54,55,56,57,58,59,60,61,62,63,64,65,66,67,68,69,70,71,72,73,74,75,76,77,78,79,80,81,82,83,84,85,86,87,88,89,90,91,92,93,94,95,96,97,98,99,100,101,102,103,104,105,106,107,108,109,110,111,112,113,114,115,116,117,118,119,120,121,122,123,124,125,126,127,128,129,130,131,132,133,134,135,136,137,138,139,140,141,142,143,144,145,146,147,148,149,150,151,152,153,154,155,156,157,158,159,160,161,162,163,164,165,166,167,168,169,170,171,172,173,174,175,176,177,178,179,180,181,182,183,184,185,186,187,188,189,190,191,192,193,194,195,196,197,198,199,200,201,202,203,204,205,206,207,208,209,210,211,212,213,214,215,216,217,218,219,220,221,222,223,224,225,226,227,228,229,230,231,232,233,234,235,236,237,238,239,240,241,242,243,244,245,246,247,248,249,250,251,252,253,254,255,256,257,258,259,260,261,262,263,264,265,266,267,268,269,270,271,272,273,274,275,276,277,278,279,280,281,282,283,284,285,286,287,288,289,290,291,292,293,294,295,296,297,298,299,300,301,302,303,304,305,306,307,308,309,310,311,312,313,314,315,316,317,318,319,320,321,322,323,324,325,326,327,328,329,330,331,332,333,334,335,336,337,338,339,340,341,342,343,344,345,346,347,348,349,350,351,352,353,354,355,356,357,358,359,360,361,362,363,364,365,366,367,368,369,370,371,372,373,374,375,376,377,378,379,380,381,382,383,384,385,386,387],"tree_info":[0,0,0,0,0,0,0,0,0,0,0,0,0,0,0,0,0,0,0,0,0,0,0,0,0,0,0,0,0,0,0,0,0,0,0,0,0,0,0,0,0,0,0,0,0,0,0,0,0,0,0,0,0,0,0,0,0,0,0,0,0,0,0,0,0,0,0,0,0,0,0,0,0,0,0,0,0,0,0,0,0,0,0,0,0,0,0,0,0,0,0,0,0,0,0,0,0,0,0,0,0,0,0,0,0,0,0,0,0,0,0,0,0,0,0,0,0,0,0,0,0,0,0,0,0,0,0,0,0,0,0,0,0,0,0,0,0,0,0,0,0,0,0,0,0,0,0,0,0,0,0,0,0,0,0,0,0,0,0,0,0,0,0,0,0,0,0,0,0,0,0,0,0,0,0,0,0,0,0,0,0,0,0,0,0,0,0,0,0,0,0,0,0,0,0,0,0,0,0,0,0,0,0,0,0,0,0,0,0,0,0,0,0,0,0,0,0,0,0,0,0,0,0,0,0,0,0,0,0,0,0,0,0,0,0,0,0,0,0,0,0,0,0,0,0,0,0,0,0,0,0,0,0,0,0,0,0,0,0,0,0,0,0,0,0,0,0,0,0,0,0,0,0,0,0,0,0,0,0,0,0,0,0,0,0,0,0,0,0,0,0,0,0,0,0,0,0,0,0,0,0,0,0,0,0,0,0,0,0,0,0,0,0,0,0,0,0,0,0,0,0,0,0,0,0,0,0,0,0,0,0,0,0,0,0,0,0,0,0,0,0,0,0,0,0,0,0,0,0,0,0,0,0,0,0,0,0,0,0,0,0,0,0,0,0,0,0,0,0,0,0,0,0,0,0,0,0,0,0,0,0,0,0,0,0,0,0],"trees":[{"base_weights":[1.6296102E-4,2.9724499E-3,-3.0452974E-2,1.3499231E-2,-4.6625156E-3,-2.3881726E-2,-6.682497E-2,1.6314048E-2,-1.6622843E-2,-8.029958E-3,1.9625781E-2,-2.7280586E-2,3.0718084E-2,-7.204144E-2,1.1723915E-1,1.4243404E-2,5.674034E-2,-1.2300417E-2,-1.0025713E-1,-1.0140146E-2,2.977157E-2,-1.3073023E-1,2.1105511E-2,6.626523E-2,-2.929275E-2,1.6756754E-2,2.6343465E-1,-7.379948E-2,1.736544E-2,1.5200399E-1,-1.8565895E-2,6.590308E-2,1.2786153E-2,3.5159826E-2,8.139103E-2,-1.7751701E-2,5.903501E-2,-1.9631301E-1,-3.9825514E-2,-1.3343861E-2,1.2938874E-2,3.1677037E-2,-2.4114044E-1,-1.8821386E-1,6.734179E-2,2.26845E-2,-9.953163E-2,3.3982147E-2,2.8714952E-1,-2.6686726E-2,-9.943174E-2,3.2695312E-2,-1.5151028E-1,1.5282837E-2,7.0340573E-3,-8.116051E-2,1.814408E-2,5.572319E-4,1.7223492E-1,3.1642986E-3,2.0966275E-2,7.7263423E-4,-7.715439E-4,1.6447104E-3,1.8866608E-2,3.6703756E-3,1.3387117E-2,4.2336556E-4,-1.5976094E-3,2.052781E-3,1.27168745E-2,-5.1891655E-3,-1.4331847E-2,-4.020506E-3,7.318567E-3,-5.253746E-4,-1.9167562E-3,7.900372E-4,-5.3379415E-3,2.0006148E-3,-1.1606932E-3,-2.0576363E-2,-6.446554E-3,-7.0605963E-3,-1.8897736E-2,1.4822147E-3,8.37291E-3,1.3852268E-3,-7.567655E-4,-3.5115269E-3,-1.3838082E-2,1.9084959E-4,8.590971E-3,1.5953964E-2,1.0226029E-2,-1.2955641E-3,-1.2329987E-2,-5.3803935E-3,9.254034E-3,-2.3953833E-4,5.192905E-3,-1.3923923E-2,-3.9283745E-3,-4.362142E-3,2.1760596E-3,2.183506E-3,-1.3904633E-2,1.0716106E-2,5.0985925E-3],"categories":[],"categories_nodes":[],"categories_segments":[],"categories_sizes":[],"default_left":[0,0,0,0,0,0,0,0,0,0,0,0,0,0,0,0,0,0,0,0,0,0,0,0,0,0,0,0,0,0,0,0,0,0,0,0,0,0,0,0,0,0,0,0,0,0,0,0,0,0,0,0,0,0,0,0,0,0,0,0,0,0,0,0,0,0,0,0,0,0,0,0,0,0,0,0,0,0,0,0,0,0,0,0,0,0,0,0,0,0,0,0,0,0,0,0,0,0,0,0,0,0,0,0,0,0,0,0,0],"id":0,"left_children":[1,3,5,7,9,11,13,15,17,19,21,23,25,27,29,31,33,35,37,39,41,43,45,47,49,51,53,55,-1,57,-1,59,61,63,65,67,69,71,73,75,77,79,81,83,85,87,89,91,93,95,97,99,101,-1,-1,103,105,-1,107,-1,-1,-1,-1,-1,-1,-1,-1,-1,-1,-1,-1,-1,-1,-1,-1,-1,-1,-1,-1,-1,-1,-1,-1,-1,-1,-1,-1,-1,-1,-1,-1,-1,-1,-1,-1,-1,-1,-1,-1,-1,-1,-1,-1,-1,-1,-1,-1,-1,-1],"loss_changes":[1.2210107E1,1.0450069E1,2.8509426E0,4.634614E0,6.1639357E0,1.8759537E0,1.7570009E0,4.1840563E0,1.6881452E0,5.279739E0,2.0430255E0,1.7918806E0,1.9228446E0,1.3217812E0,8.8594365E-1,3.579461E0,1.2941928E0,1.7280775E0,1.328295E0,4.635112E0,1.810312E0,1.025375E0,1.7321577E0,1.4248514E0,1.7012129E0,1.503019E0,1.5212727E-1,1.1976557E0,0E0,1.344018E-1,0E0,1.1933217E0,3.4800067E0,1.0012072E0,1.6809897E0,1.5368975E0,1.1026318E0,7.2477794E-1,1.0751617E0,3.9017391E0,2.6185102E0,1.5906091E0,4.418862E-1,5.931282E-1,7.4887745E-2,1.7033205E0,6.004628E-1,7.293805E-1,3.464818E-2,1.5284209E0,7.857487E-1,1.3647333E0,4.3823874E-1,0E0,0E0,1.2437057E0,1.0004423E0,0E0,1.11795306E-1,0E0,0E0,0E0,0E0,0E0,0E0,0E0,0E0,0E0,0E0,0E0,0E0,0E0,0E0,0E0,0E0,0E0,0E0,0E0,0E0,0E0,0E0,0E0,0E0,0E0,0E0,0E0,0E0,0E0,0E0,0E0,0E0,0E0,0E0,0E0,0E0,0E0,0E0,0E0,0E0,0E0,0E0,0E0,0E0,0E0,0E0,0E0,0E0,0E0,0E0],"parents":[2147483647,0,0,1,1,2,2,3,3,4,4,5,5,6,6,7,7,8,8,9,9,10,10,11,11,12,12,13,13,14,14,15,15,16,16,17,17,18,18,19,19,20,20,21,21,22,22,23,23,24,24,25,25,26,26,27,27,29,29,31,31,32,32,33,33,34,34,35,35,36,36,37,37,38,38,39,39,40,40,41,41,42,42,43,43,44,44,45,45,46,46,47,47,48,48,49,49,50,50,51,51,52,52,55,55,56,56,58,58],"right_children":[2,4,6,8,10,12,14,16,18,20,22,24,26,28,30,32,34,36,38,40,42,44,46,48,50,52,54,56,-1,58,-1,60,62,64,66,68,70,72,74,76,78,80,82,84,86,88,90,92,94,96,98,100,102,-1,-1,104,106,-1,108,-1,-1,-1,-1,-1,-1,-1,-1,-1,-1,-1,-1,-1,-1,-1,-1,-1,-1,-1,-1,-1,-1,-1,-1,-1,-1,-1,-1,-1,-1,-1,-1,-1,-1,-1,-1,-1,-1,-1,-1,-1,-1,-1,-1,-1,-1,-1,-1,-1,-1],"split_conditions":[1.6666667E-1,5.434847E-1,2E-1,1.25E-1,6.25E-1,8E-1,6.666667E-1,4E-1,1.1111111E-1,3.3333334E-1,2.1111112E0,4.1775024E-1,1.25E0,2E0,1.1111111E-1,3.7659493E-1,1.6666667E-1,2E-1,3.75E-1,8E-1,1.4285715E-1,2E-1,1.3333334E0,1.7777778E0,5.714286E-1,1.25E-1,5.3223616E-1,1.25E-1,1.736544E-2,4.9822783E-1,-1.8565895E-2,3E0,1.25E-1,1.25E0,1.6666667E-1,4.8201516E-1,1.25E-1,2.5E-1,2.5E-1,1.6666667E-1,1.1111111E-1,1.25E-1,5.75187E-1,1.6666667E-1,5.75187E-1,7.428571E0,1.1111111E-1,1.6666667E-1,4.0192452E-1,2E-1,2.142857E0,1.25E-1,1.1111111E-1,1.5282837E-2,7.0340573E-3,8.333333E-1,1.1111111E-1,5.572319E-4,1.125E0,3.1642986E-3,2.0966275E-2,7.7263423E-4,-7.715439E-4,1.6447104E-3,1.8866608E-2,3.6703756E-3,1.3387117E-2,4.2336556E-4,-1.5976094E-3,2.052781E-3,1.27168745E-2,-5.1891655E-3,-1.4331847E-2,-4.020506E-3,7.318567E-3,-5.253746E-4,-1.9167562E-3,7.900372E-4,-5.3379415E-3,2.0006148E-3,-1.1606932E-3,-2.0576363E-2,-6.446554E-3,-7.0605963E-3,-1.8897736E-2,1.4822147E-3,8.37291E-3,1.3852268E-3,-7.567655E-4,-3.5115269E-3,-1.3838082E-2,1.9084959E-4,8.590971E-3,1.5953964E-2,1.0226029E-2,-1.2955641E-3,-1.2329987E-2,-5.3803935E-3,9.254034E-3,-2.3953833E-4,5.192905E-3,-1.3923923E-2,-3.9283745E-3,-4.362142E-3,2.1760596E-3,2.183506E-3,-1.3904633E-2,1.0716106E-2,5.0985925E-3],"split_indices":[210,0,237,352,82,91,98,80,300,148,203,0,350,23,109,0,348,159,225,48,201,312,178,328,167,79,0,283,0,0,0,239,237,283,341,0,95,142,17,34,137,174,0,27,0,187,8,24,0,16,227,277,26,0,0,193,305,0,66,0,0,0,0,0,0,0,0,0,0,0,0,0,0,0,0,0,0,0,0,0,0,0,0,0,0,0,0,0,0,0,0,0,0,0,0,0,0,0,0,0,0,0,0,0,0,0,0,0,0],"split_type":[0,0,0,0,0,0,0,0,0,0,0,0,0,0,0,0,0,0,0,0,0,0,0,0,0,0,0,0,0,0,0,0,0,0,0,0,0,0,0,0,0,0,0,0,0,0,0,0,0,0,0,0,0,0,0,0,0,0,0,0,0,0,0,0,0,0,0,0,0,0,0,0,0,0,0,0,0,0,0,0,0,0,0,0,0,0,0,0,0,0,0,0,0,0,0,0,0,0,0,0,0,0,0,0,0,0,0,0,0],"sum_hessian":[1.41952E5,1.30021E5,1.1931E4,5.4659E4,7.5362E4,1.0106E4,1.825E3,4.9988E4,4.671E3,6.6186E4,9.176E3,9.514E3,5.92E2,1.775E3,5E1,4.7553E4,2.435E3,4.442E3,2.29E2,6.2687E4,3.499E3,8.9E1,9.087E3,2E2,9.314E3,5.59E2,3.3E1,1.768E3,7E0,4.7E1,3E0,1.304E3,4.6249E4,1.299E3,1.136E3,4.127E3,3.15E2,8.8E1,1.41E2,5.5046E4,7.641E3,3.475E3,2.4E1,6.9E1,2E1,8.97E3,1.17E2,1.75E2,2.5E1,8.981E3,3.33E2,5.11E2,4.8E1,2.4E1,9E0,1.637E3,1.31E2,6E0,4.1E1,1.295E3,9E0,4.2256E4,3.993E3,1.291E3,8E0,1.09E3,4.6E1,1.45E3,2.677E3,2.89E2,2.6E1,4.4E1,4.4E1,1.16E2,2.5E1,4.9436E4,5.61E3,7.463E3,1.78E2,3.017E3,4.58E2,9E0,1.5E1,5.6E1,1.3E1,1.5E1,5E0,7.919E3,1.051E3,1.01E2,1.6E1,1.44E2,3.1E1,1.7E1,8E0,8.95E3,3.1E1,3.24E2,9E0,3.35E2,1.76E2,1.7E1,3.1E1,1.561E3,7.6E1,1.21E2,1E1,2.5E1,1.6E1],"tree_param":{"num_deleted":"0","num_feature":"365","num_nodes":"109","size_leaf_vector":"1"}},{"base_weights":[-2.5154994E-4,2.4600767E-3,-2.9189646E-2,4.844825E-3,-2.5260324E-2,-3.761817E-2,-6.043726E-3,2.6033262E-2,1.9080098E-3,-2.124726E-2,-1.0597458E-1,6.0818866E-2,-3.9684694E-2,-4.2659473E-3,-2.5791943E-1,4.152321E-2,1.7801836E-2,4.4129915E-3,-2.481054E-2,-2.5015827E-2,2.6457757E-2,-1.5289323E-1,-3.4523625E-2,2.6002156E-2,2.733054E-1,-3.6414195E-2,-9.012961E-2,4.007378E-3,-5.2928492E-2,-1.8740934E-1,-2.0853331E-2,3.8826913E-2,1.712591E-1,1.51246395E-2,9.1448486E-2,1.533835E-3,2.4105772E-2,-1.847013E-2,-5.497022E-2,-3.0762909E-2,1.1047986E-2,-1.3988757E-2,6.541317E-2,-1.7232363E-1,-1.9505143E-2,-5.0748107E-3,-1.7334081E-1,4.0524777E-2,-1.7786117E-1,1.1463081E-2,1.6770897E-2,-3.3750847E-2,-1.073007E-1,-1.1955353E-1,-2.9045952E-2,1.0319817E-2,-1.0331731E-1,-4.3132372E-2,-3.0135727E-1,-1.2717709E-2,-9.01186E-2,1.697001E-3,4.4585327E-3,3.7750942E-3,1.6348612E-2,6.838322E-4,6.3647227E-3,3.0596077E-3,1.4226873E-2,-1.5389067E-5,1.6994197E-3,1.3300803E-3,-1.7639942E-3,-7.0532534E-4,-4.0505673E-3,-3.528575E-3,7.9111365E-4,-1.7838437E-3,2.5547278E-4,-5.042778E-4,3.9411057E-3,-1.1261494E-3,1.4586697E-2,3.813019E-3,-1.2024567E-2,-9.138647E-3,1.8224856E-3,1.485329E-3,-1.0916623E-2,4.8125008E-4,-1.5083635E-2,-1.48934815E-2,1.1089277E-3,1.2615768E-3,9.512851E-3,-1.1050135E-2,-4.789164E-3,-1.5274695E-3,-4.9401997E-3,-6.0010944E-3,1.9290099E-2,-7.2298334E-3,-1.9339221E-3,-9.0180023E-4,-1.7985329E-2,6.6471123E-4,-7.7608204E-3,-7.7858265E-3,2.625004E-3,-5.901647E-4,-6.0735103E-3,-7.434136E-3,-2.1104997E-2,-5.3151385E-3,-2.821815E-3],"categories":[],"categories_nodes":[],"categories_segments":[],"categories_sizes":[],"default_left":[0,0,0,0,0,0,0,0,0,0,0,0,0,0,0,0,0,0,0,0,0,0,0,0,0,0,0,0,0,0,0,0,0,0,0,0,0,0,0,0,0,0,0,0,0,0,0,0,0,0,0,0,0,0,0,0,0,0,0,0,0,0,0,0,0,0,0,0,0,0,0,0,0,0,0,0,0,0,0,0,0,0,0,0,0,0,0,0,0,0,0,0,0,0,0,0,0,0,0,0,0,0,0,0,0,0,0,0,0,0,0,0,0,0,0],"id":1,"left_children":[1,3,5,7,9,11,13,15,17,19,21,23,25,27,29,31,33,35,37,39,41,43,45,47,49,51,53,55,57,59,-1,61,63,65,67,69,71,73,75,77,79,81,83,85,87,89,91,93,95,-1,-1,97,99,101,103,105,107,109,111,-1,113,-1,-1,-1,-1,-1,-1,-1,-1,-1,-1,-1,-1,-1,-1,-1,-1,-1,-1,-1,-1,-1,-1,-1,-1,-1,-1,-1,-1,-1,-1,-1,-1,-1,-1,-1,-1,-1,-1,-1,-1,-1,-1,-1,-1,-1,-1,-1,-1,-1,-1,-1,-1,-1,-1],"loss_changes":[1.1016696E1,8.485878E0,2.3464775E0,7.355056E0,3.2925677E0,1.7948818E0,1.4374928E0,1.8342276E0,6.948037E0,1.7419453E0,1.6115327E0,1.3391984E0,1.4232092E0,1.2842022E0,2.1340227E-1,1.7430878E0,1.8519833E0,5.3813868E0,1.7011051E0,1.8610692E0,1.1183532E0,7.512331E-1,7.824125E-1,4.669425E-1,3.131044E-2,1.529604E0,9.427562E-1,1.8476838E0,1.1214923E0,9.600532E-2,0E0,1.2019143E0,1.5010877E0,1.4718852E0,1.9162877E0,4.949254E0,1.7948556E0,2.0062456E0,1.7074909E0,1.3652573E0,1.7685809E0,9.1255945E-1,1.2087028E0,5.5634975E-1,3.7016678E-1,6.9250125E-1,8.189542E-1,3.3306882E-1,2.659595E-2,0E0,0E0,1.6268091E0,1.8642342E0,7.1519566E-1,6.211116E-1,1.2691364E0,1.2410408E0,1.0951066E0,2.9122138E-1,0E0,1.088731E-3,0E0,0E0,0E0,0E0,0E0,0E0,0E0,0E0,0E0,0E0,0E0,0E0,0E0,0E0,0E0,0E0,0E0,0E0,0E0,0E0,0E0,0E0,0E0,0E0,0E0,0E0,0E0,0E0,0E0,0E0,0E0,0E0,0E0,0E0,0E0,0E0,0E0,0E0,0E0,0E0,0E0,0E0,0E0,0E0,0E0,0E0,0E0,0E0,0E0,0E0,0E0,0E0,0E0,0E0],"parents":[2147483647,0,0,1,1,2,2,3,3,4,4,5,5,6,6,7,7,8,8,9,9,10,10,11,11,12,12,13,13,14,14,15,15,16,16,17,17,18,18,19,19,20,20,21,21,22,22,23,23,24,24,25,25,26,26,27,27,28,28,29,29,31,31,32,32,33,33,34,34,35,35,36,36,37,37,38,38,39,39,40,40,41,41,42,42,43,43,44,44,45,45,46,46,47,47,48,48,51,51,52,52,53,53,54,54,55,55,56,56,57,57,58,58,60,60],"right_children":[2,4,6,8,10,12,14,16,18,20,22,24,26,28,30,32,34,36,38,40,42,44,46,48,50,52,54,56,58,60,-1,62,64,66,68,70,72,74,76,78,80,82,84,86,88,90,92,94,96,-1,-1,98,100,102,104,106,108,110,112,-1,114,-1,-1,-1,-1,-1,-1,-1,-1,-1,-1,-1,-1,-1,-1,-1,-1,-1,-1,-1,-1,-1,-1,-1,-1,-1,-1,-1,-1,-1,-1,-1,-1,-1,-1,-1,-1,-1,-1,-1,-1,-1,-1,-1,-1,-1,-1,-1,-1,-1,-1,-1,-1,-1,-1],"split_conditions":[1.6666667E-1,3.3333334E-1,8E-1,4.7698393E-1,2.857143E-1,4.1775024E-1,1.4285715E-1,4.3262416E-1,1.6666667E-1,8.333333E-1,4E-1,1.1111112E0,8E-1,2.857143E-1,5.2674675E-1,2E0,1.375E0,7.5E-1,1E0,8E-1,1.25E-1,6.125E0,1.25E-1,1.1111111E-1,1.125E0,1.1111111E-1,5.125E0,1.1111111E-1,2E-1,4.142857E0,-2.0853331E-2,8.285714E0,1.1666666E0,1.1666666E0,1.4285715E-1,8.888889E-1,1.25E-1,1.25E-1,6.153749E-1,2.857143E-1,1.6666667E-1,2.1666667E0,1.25E-1,1.1111111E-1,5.682692E-1,1.3333334E0,1.1111112E0,1.1111111E-1,4.0192452E-1,1.1463081E-2,1.6770897E-2,5.714286E-1,1.25E-1,1.4285715E-1,1.1111111E-1,5E-1,1.1111111E-1,4.5555553E0,4.8715356E-1,-1.2717709E-2,4.380553E-1,1.697001E-3,4.4585327E-3,3.7750942E-3,1.6348612E-2,6.838322E-4,6.3647227E-3,3.0596077E-3,1.4226873E-2,-1.5389067E-5,1.6994197E-3,1.3300803E-3,-1.7639942E-3,-7.0532534E-4,-4.0505673E-3,-3.528575E-3,7.9111365E-4,-1.7838437E-3,2.5547278E-4,-5.042778E-4,3.9411057E-3,-1.1261494E-3,1.4586697E-2,3.813019E-3,-1.2024567E-2,-9.138647E-3,1.8224856E-3,1.485329E-3,-1.0916623E-2,4.8125008E-4,-1.5083635E-2,-1.48934815E-2,1.1089277E-3,1.2615768E-3,9.512851E-3,-1.1050135E-2,-4.789164E-3,-1.5274695E-3,-4.9401997E-3,-6.0010944E-3,1.9290099E-2,-7.2298334E-3,-1.9339221E-3,-9.0180023E-4,-1.7985329E-2,6.6471123E-4,-7.7608204E-3,-7.7858265E-3,2.625004E-3,-5.901647E-4,-6.0735103E-3,-7.434136E-3,-2.1104997E-2,-5.3151385E-3,-2.821815E-3],"split_indices":[210,352,318,0,333,0,111,0,34,253,133,328,333,137,0,82,252,82,243,199,84,290,34,175,62,64,203,97,150,103,0,203,349,223,284,148,174,275,0,242,334,124,79,299,0,108,83,154,0,0,0,167,186,336,173,348,291,103,0,0,0,0,0,0,0,0,0,0,0,0,0,0,0,0,0,0,0,0,0,0,0,0,0,0,0,0,0,0,0,0,0,0,0,0,0,0,0,0,0,0,0,0,0,0,0,0,0,0,0,0,0,0,0,0,0],"split_type":[0,0,0,0,0,0,0,0,0,0,0,0,0,0,0,0,0,0,0,0,0,0,0,0,0,0,0,0,0,0,0,0,0,0,0,0,0,0,0,0,0,0,0,0,0,0,0,0,0,0,0,0,0,0,0,0,0,0,0,0,0,0,0,0,0,0,0,0,0,0,0,0,0,0,0,0,0,0,0,0,0,0,0,0,0,0,0,0,0,0,0,0,0,0,0,0,0,0,0,0,0,0,0,0,0,0,0,0,0,0,0,0,0,0,0],"sum_hessian":[1.40394E5,1.28366E5,1.2028E4,1.18198E5,1.0168E4,8.817E3,3.211E3,1.4388E4,1.0381E5,9.687E3,4.81E2,1.81E2,8.636E3,3.189E3,2.2E1,4.992E3,9.396E3,9.4912E4,8.898E3,8.978E3,7.09E2,2.9E2,1.91E2,1.56E2,2.5E1,8.111E3,5.25E2,2.726E3,4.63E2,1.6E1,6E0,4.891E3,1.01E2,9.067E3,3.29E2,8.2806E4,1.2106E4,7.353E3,1.545E3,7.744E3,1.234E3,3.48E2,3.61E2,2.53E2,3.7E1,1.58E2,3.3E1,1.46E2,1E1,1.6E1,9E0,7.818E3,2.93E2,3.54E2,1.71E2,2.575E3,1.51E2,4.46E2,1.7E1,9E0,7E0,4.459E3,4.32E2,6.3E1,3.8E1,8.952E3,1.15E2,2.85E2,4.4E1,7.836E4,4.446E3,1.1618E4,4.88E2,6.874E3,4.79E2,1.266E3,2.79E2,6.811E3,9.33E2,9.41E2,2.93E2,3.39E2,9E0,3.49E2,1.2E1,2.41E2,1.2E1,3E1,7E0,1.51E2,7E0,2E1,1.3E1,1.33E2,1.3E1,6E0,4E0,7.452E3,3.66E2,2.86E2,7E0,2.7E2,8.4E1,1.66E2,5E0,2.53E3,4.5E1,1.13E2,3.8E1,3.19E2,1.27E2,8E0,9E0,4E0,3E0],"tree_param":{"num_deleted":"0","num_feature":"365","num_nodes":"115","size_leaf_vector":"1"}},{"base_weights":[1.1233469E-4,1.0072864E-2,-7.064185E-3,2.1251032E-2,6.133981E-4,-4.490053E-3,-3.3983953E-2,2.4202097E-2,-2.2870298E-2,2.424238E-3,-6.4981826E-2,-7.4033067E-3,1.6513972E-2,-3.0603195E-2,-1.0691754E-1,2.2055889E-2,6.644699E-2,-2.9787026E-2,1.5875226E-1,-1.8139553E-3,2.5708692E-2,-4.6188567E-2,-1.529034E-1,-9.445295E-3,2.795196E-2,1.8236853E-2,-1.1579302E-1,-3.175042E-2,1.7837022E-1,-1.16130985E-1,1.1742476E-2,2.3284825E-2,-3.7264254E-2,7.1682476E-2,-1.4773688E-1,-3.6811836E-2,7.573043E-2,2.0408556E-1,-1.0490114E-1,-5.7418365E-3,2.0927785E-2,3.0020446E-2,-3.7192326E-2,-3.8197935E-2,-2.237142E-1,-6.262724E-2,-2.2037897E-1,-1.2664283E-2,1.4178425E-2,3.745063E-2,-3.458455E-2,1.0590357E-2,4.3247063E-2,-8.078788E-2,-2.896448E-1,-3.6081765E-2,1.1845221E-2,1.6626336E-2,1.3753878E-1,-1.5747462E-1,-3.658641E-2,1.0070972E-3,2.3448267E-3,-2.569777E-3,3.710605E-3,3.854988E-3,-6.8695964E-3,-1.4659971E-2,-1.9807003E-3,-2.480854E-3,7.244912E-4,-2.211956E-5,8.196759E-3,1.1560655E-2,3.3136567E-3,-1.2066649E-2,-1.1684265E-3,-4.0139197E-4,2.0935156E-3,-6.8641915E-5,2.392802E-3,1.5802626E-3,-6.446101E-3,-2.5235547E-3,6.635858E-3,6.292732E-3,-2.2405533E-3,-1.5692117E-2,-3.058077E-3,-5.3936667E-3,5.011699E-3,-3.1778202E-3,-1.3202542E-2,-7.3403976E-4,1.044162E-3,1.2670172E-4,2.4313193E-3,2.37836E-3,-8.9079805E-4,-1.0677762E-2,-3.2107843E-4,3.4849465E-4,3.99884E-3,1.8991715E-3,9.057346E-3,-6.363116E-3,3.512126E-3,-1.6150605E-2,-7.126516E-3,-1.8939193E-3,3.5503195E-3,1.1840811E-4,8.836949E-3,5.2334275E-3,8.298614E-3,-9.112671E-3,1.809907E-3,-5.009767E-4,-1.096158E-2],"categories":[],"categories_nodes":[],"categories_segments":[],"categories_sizes":[],"default_left":[0,0,0,0,0,0,0,0,0,0,0,0,0,0,0,0,0,0,0,0,0,0,0,0,0,0,0,0,0,0,0,0,0,0,0,0,0,0,0,0,0,0,0,0,0,0,0,0,0,0,0,0,0,0,0,0,0,0,0,0,0,0,0,0,0,0,0,0,0,0,0,0,0,0,0,0,0,0,0,0,0,0,0,0,0,0,0,0,0,0,0,0,0,0,0,0,0,0,0,0,0,0,0,0,0,0,0,0,0,0,0,0,0,0,0,0,0,0,0],"id":2,"left_children":[1,3,5,7,9,11,13,15,17,19,21,23,25,27,29,31,33,35,37,39,41,43,45,47,49,51,53,55,57,59,-1,61,63,65,67,69,71,73,75,77,79,81,83,85,87,89,91,93,95,97,99,101,103,105,107,109,111,-1,113,115,117,-1,-1,-1,-1,-1,-1,-1,-1,-1,-1,-1,-1,-1,-1,-1,-1,-1,-1,-1,-1,-1,-1,-1,-1,-1,-1,-1,-1,-1,-1,-1,-1,-1,-1,-1,-1,-1,-1,-1,-1,-1,-1,-1,-1,-1,-1,-1,-1,-1,-1,-1,-1,-1,-1,-1,-1,-1,-1],"loss_changes":[1.0105686E1,6.2601423E0,5.6939335E0,3.5335827E0,3.809135E0,4.5892844E0,1.7666464E0,2.3054104E0,2.139846E0,3.079606E0,1.4199533E0,4.7552204E0,2.0834875E0,1.6461244E0,1.013397E0,1.7651043E0,1.3840032E0,1.2166568E0,7.5772166E-1,2.358423E0,1.3038754E0,1.0036014E0,9.159517E-1,4.735266E0,2.1370173E0,1.724473E0,7.033706E-1,1.2875471E0,2.1317339E-1,1.0149603E0,0E0,1.7594242E0,7.76169E-1,1.3650007E0,4.581635E-1,1.01039E0,6.887138E-1,1.9234872E-1,1.02854826E-1,2.4505713E0,2.3351421E0,1.1349249E0,6.993834E-1,7.410952E-1,4.3724465E-1,4.8806494E-1,5.840244E-1,3.7074184E0,2.9953427E0,1.7462387E0,2.3909593E0,1.734962E0,1.5292015E0,6.9584644E-1,7.270241E-2,1.1944952E0,9.632002E-1,0E0,1.9819736E-2,9.798908E-1,5.1567286E-1,0E0,0E0,0E0,0E0,0E0,0E0,0E0,0E0,0E0,0E0,0E0,0E0,0E0,0E0,0E0,0E0,0E0,0E0,0E0,0E0,0E0,0E0,0E0,0E0,0E0,0E0,0E0,0E0,0E0,0E0,0E0,0E0,0E0,0E0,0E0,0E0,0E0,0E0,0E0,0E0,0E0,0E0,0E0,0E0,0E0,0E0,0E0,0E0,0E0,0E0,0E0,0E0,0E0,0E0,0E0,0E0,0E0,0E0],"parents":[2147483647,0,0,1,1,2,2,3,3,4,4,5,5,6,6,7,7,8,8,9,9,10,10,11,11,12,12,13,13,14,14,15,15,16,16,17,17,18,18,19,19,20,20,21,21,22,22,23,23,24,24,25,25,26,26,27,27,28,28,29,29,31,31,32,32,33,33,34,34,35,35,36,36,37,37,38,38,39,39,40,40,41,41,42,42,43,43,44,44,45,45,46,46,47,47,48,48,49,49,50,50,51,51,52,52,53,53,54,54,55,55,56,56,58,58,59,59,60,60],"right_children":[2,4,6,8,10,12,14,16,18,20,22,24,26,28,30,32,34,36,38,40,42,44,46,48,50,52,54,56,58,60,-1,62,64,66,68,70,72,74,76,78,80,82,84,86,88,90,92,94,96,98,100,102,104,106,108,110,112,-1,114,116,118,-1,-1,-1,-1,-1,-1,-1,-1,-1,-1,-1,-1,-1,-1,-1,-1,-1,-1,-1,-1,-1,-1,-1,-1,-1,-1,-1,-1,-1,-1,-1,-1,-1,-1,-1,-1,-1,-1,-1,-1,-1,-1,-1,-1,-1,-1,-1,-1,-1,-1,-1,-1,-1,-1,-1,-1,-1,-1],"split_conditions":[5.434847E-1,1.4285715E-1,1.6666667E-1,2E-1,2E-1,6.25E-1,1.1111111E-1,2.142857E0,2.1666667E0,1.25E0,4.011111E1,3.3333334E-1,1.3333334E0,1.4285715E-1,1.4285715E-1,1E0,1.1111111E-1,1.1111111E-1,1.1428572E0,7.1428573E-1,3.3333334E-1,1.25E-1,4.8127717E-1,8E-1,1.25E-1,3.3333334E-1,2E0,1.25E-1,5.75861E-1,1.1111111E-1,1.1742476E-2,7.5E-1,2E-1,1.25E-1,1.1111111E-1,1.4285715E-1,5.15593E-1,2.1666667E0,4.1775024E-1,8.888889E-1,7.8333335E0,1.25E-1,5.374638E-1,3.675695E-1,1.1111111E-1,1.1111111E-1,2.1111112E0,8E-1,7.6E0,1.25E-1,5.623899E-1,1.2222222E0,1.125E0,1.1111111E-1,6.5613234E-1,2E-1,1.1666666E0,1.6626336E-2,6.134487E-1,1.1111111E-1,1.1666666E0,1.0070972E-3,2.3448267E-3,-2.569777E-3,3.710605E-3,3.854988E-3,-6.8695964E-3,-1.4659971E-2,-1.9807003E-3,-2.480854E-3,7.244912E-4,-2.211956E-5,8.196759E-3,1.1560655E-2,3.3136567E-3,-1.2066649E-2,-1.1684265E-3,-4.0139197E-4,2.0935156E-3,-6.8641915E-5,2.392802E-3,1.5802626E-3,-6.446101E-3,-2.5235547E-3,6.635858E-3,6.292732E-3,-2.2405533E-3,-1.5692117E-2,-3.058077E-3,-5.3936667E-3,5.011699E-3,-3.1778202E-3,-1.3202542E-2,-7.3403976E-4,1.044162E-3,1.2670172E-4,2.4313193E-3,2.37836E-3,-8.9079805E-4,-1.0677762E-2,-3.2107843E-4,3.4849465E-4,3.99884E-3,1.8991715E-3,9.057346E-3,-6.363116E-3,3.512126E-3,-1.6150605E-2,-7.126516E-3,-1.8939193E-3,3.5503195E-3,1.1840811E-4,8.836949E-3,5.2334275E-3,8.298614E-3,-9.112671E-3,1.809907E-3,-5.009767E-4,-1.096158E-2],"split_indices":[0,142,210,235,122,82,222,177,277,83,364,148,178,25,48,110,128,28,125,250,352,288,0,48,174,14,82,6,0,121,0,242,312,229,116,61,0,49,0,91,142,198,0,0,53,175,290,91,142,237,0,3,176,73,0,247,114,0,0,302,197,0,0,0,0,0,0,0,0,0,0,0,0,0,0,0,0,0,0,0,0,0,0,0,0,0,0,0,0,0,0,0,0,0,0,0,0,0,0,0,0,0,0,0,0,0,0,0,0,0,0,0,0,0,0,0,0,0,0],"split_type":[0,0,0,0,0,0,0,0,0,0,0,0,0,0,0,0,0,0,0,0,0,0,0,0,0,0,0,0,0,0,0,0,0,0,0,0,0,0,0,0,0,0,0,0,0,0,0,0,0,0,0,0,0,0,0,0,0,0,0,0,0,0,0,0,0,0,0,0,0,0,0,0,0,0,0,0,0,0,0,0,0,0,0,0,0,0,0,0,0,0,0,0,0,0,0,0,0,0,0,0,0,0,0,0,0,0,0,0,0,0,0,0,0,0,0,0,0,0,0],"sum_hessian":[1.41373E5,5.9203E4,8.217E4,2.7136E4,3.2067E4,7.4999E4,7.171E3,2.5435E4,1.701E3,3.1206E4,8.61E2,6.5864E4,9.135E3,6.854E3,3.17E2,2.4206E4,1.229E3,1.639E3,6.2E1,2.6401E4,4.805E3,7.1E2,1.51E2,6.2268E4,3.596E3,9.018E3,1.17E2,6.817E3,3.7E1,3.09E2,8E0,2.3715E4,4.91E2,1.2E3,2.9E1,1.537E3,1.02E2,5.3E1,9E0,2.2513E4,3.888E3,4.497E3,3.08E2,6.8E2,3E1,6.5E1,8.6E1,5.4801E4,7.467E3,3.122E3,4.74E2,6.907E3,2.111E3,9.8E1,1.9E1,6.201E3,6.16E2,7E0,3E1,2.03E2,1.06E2,2.093E4,2.785E3,4.36E2,5.5E1,1.17E3,3E1,1.2E1,1.7E1,1.23E3,3.07E2,5.5E1,4.7E1,4.4E1,9E0,3E0,6E0,2.1482E4,1.031E3,2.127E3,1.761E3,4.453E3,4.4E1,2.86E2,2.2E1,2.6E1,6.54E2,1.9E1,1.1E1,5.1E1,1.4E1,1.9E1,6.7E1,5.1694E4,3.107E3,5.581E3,1.886E3,2.639E3,4.83E2,6.4E1,4.1E2,6.565E3,3.42E2,2.034E3,7.7E1,7.5E1,2.3E1,1.5E1,4E0,6.099E3,1.02E2,5.83E2,3.3E1,1.5E1,1.5E1,1.8E2,2.3E1,9.3E1,1.3E1],"tree_param":{"num_deleted":"0","num_feature":"365","num_nodes":"119","size_leaf_vector":"1"}},{"base_weights":[2.005718E-4,9.907978E-3,-7.2607384E-3,2.0294124E-2,1.5294671E-3,-1.5236009E-2,8.018921E-3,2.447624E-2,-1.995607E-2,2.414776E-3,-1.19851135E-1,-1.7466873E-2,1.9790372E-2,7.132271E-4,2.997932E-2,2.6559839E-2,-1.655958E-2,-2.3648966E-2,1.3369288E-1,-1.988137E-3,2.423436E-2,-1.3838992E-1,1.802629E-1,-1.9495364E-2,1.9690538E-2,1.2426206E-2,9.161704E-2,3.133025E-3,-6.7511804E-2,3.64278E-2,-1.821274E-2,2.4500612E-2,6.378933E-2,-2.5224987E-2,1.4100601E-1,-2.954724E-2,6.531528E-2,1.8071896E-1,-1.0533634E-2,-4.519342E-3,3.1133154E-2,3.3300858E-2,-1.6486377E-2,-1.7373425E-1,-6.6821184E-3,4.736815E-3,1.1753094E-2,-1.8233664E-2,-6.977427E-2,2.1274442E-2,-2.0237435E-2,1.8030828E-2,-7.444084E-2,1.424711E-1,2.7450304E-2,-8.5674284E-4,3.1391274E-2,1.2612928E-1,-7.357127E-2,4.082837E-2,-3.0892448E-2,1.1547774E-1,-4.4738498E-2,1.0732723E-3,2.2184427E-3,2.758931E-3,1.5858863E-2,-1.9137776E-3,3.9510657E-3,1.1415875E-3,1.56013435E-2,-1.7523299E-3,4.8404397E-3,-1.7031273E-4,1.1395949E-2,9.913403E-3,-4.915328E-3,-1.7204336E-4,-3.573214E-3,1.8672757E-3,-5.4534036E-3,1.738089E-3,-9.737316E-3,-1.0408342E-3,1.436765E-2,-7.290253E-3,-1.4571667E-2,2.280243E-3,-2.646187E-3,-1.0335305E-3,4.7455946E-4,-3.6178615E-3,1.6296908E-2,5.6164025E-4,3.6898763E-3,1.1984822E-3,-3.7496404E-3,-5.208021E-3,6.835489E-3,8.107479E-3,-6.148297E-3,4.0520183E-3,-5.510218E-3,-3.6912307E-4,7.684417E-4,1.1978375E-3,5.926753E-3,9.326911E-3,-1.0559673E-2,-2.5456815E-3,-6.88814E-3,1.3854967E-3,3.3765105E-3,-2.9987316E-3,3.5320886E-3,6.7561246E-3,-1.1178121E-2,-3.0551942E-3,4.771951E-3],"categories":[],"categories_nodes":[],"categories_segments":[],"categories_sizes":[],"default_left":[0,0,0,0,0,0,0,0,0,0,0,0,0,0,0,0,0,0,0,0,0,0,0,0,0,0,0,0,0,0,0,0,0,0,0,0,0,0,0,0,0,0,0,0,0,0,0,0,0,0,0,0,0,0,0,0,0,0,0,0,0,0,0,0,0,0,0,0,0,0,0,0,0,0,0,0,0,0,0,0,0,0,0,0,0,0,0,0,0,0,0,0,0,0,0,0,0,0,0,0,0,0,0,0,0,0,0,0,0,0,0,0,0,0,0,0,0,0,0],"id":3,"left_children":[1,3,5,7,9,11,13,15,17,19,21,23,25,27,29,31,33,35,37,39,41,43,45,47,49,51,53,55,57,59,61,63,65,67,69,71,73,75,-1,77,79,81,83,85,87,-1,-1,89,91,93,-1,95,97,99,101,103,105,107,109,111,113,115,117,-1,-1,-1,-1,-1,-1,-1,-1,-1,-1,-1,-1,-1,-1,-1,-1,-1,-1,-1,-1,-1,-1,-1,-1,-1,-1,-1,-1,-1,-1,-1,-1,-1,-1,-1,-1,-1,-1,-1,-1,-1,-1,-1,-1,-1,-1,-1,-1,-1,-1,-1,-1,-1,-1,-1,-1],"loss_changes":[1.020857E1,5.3302045E0,9.711222E0,4.6040096E0,3.6433926E0,4.091652E0,4.384785E0,2.1185818E0,1.4623764E0,3.2335868E0,1.3783731E0,3.7105656E0,1.6579331E0,3.3858705E0,2.1205282E0,1.8068371E0,1.636809E0,1.3204122E0,9.98783E-1,2.348129E0,2.0867763E0,1.0770812E0,5.68237E-2,2.9605026E0,1.7175891E0,1.3855355E0,9.492495E-1,2.2330747E0,8.289268E-1,1.7832994E0,2.8590806E0,1.3469152E0,2.6869254E0,1.5463295E0,1.2595795E0,1.6405635E0,1.7491777E0,2.7171612E-1,0E0,1.878444E0,1.7339809E0,1.5434122E0,1.357523E0,5.786748E-1,1.208896E-1,0E0,0E0,3.076725E0,1.1795545E0,1.3389632E0,0E0,1.4773222E0,1.0896108E0,8.5877156E-1,9.597767E-1,1.8378247E0,1.5861919E0,4.5780984E-1,9.876859E-1,1.9776573E0,1.0931915E0,9.042628E-1,1.5456705E0,0E0,0E0,0E0,0E0,0E0,0E0,0E0,0E0,0E0,0E0,0E0,0E0,0E0,0E0,0E0,0E0,0E0,0E0,0E0,0E0,0E0,0E0,0E0,0E0,0E0,0E0,0E0,0E0,0E0,0E0,0E0,0E0,0E0,0E0,0E0,0E0,0E0,0E0,0E0,0E0,0E0,0E0,0E0,0E0,0E0,0E0,0E0,0E0,0E0,0E0,0E0,0E0,0E0,0E0,0E0,0E0],"parents":[2147483647,0,0,1,1,2,2,3,3,4,4,5,5,6,6,7,7,8,8,9,9,10,10,11,11,12,12,13,13,14,14,15,15,16,16,17,17,18,18,19,19,20,20,21,21,22,22,23,23,24,24,25,25,26,26,27,27,28,28,29,29,30,30,31,31,32,32,33,33,34,34,35,35,36,36,37,37,39,39,40,40,41,41,42,42,43,43,44,44,47,47,48,48,49,49,51,51,52,52,53,53,54,54,55,55,56,56,57,57,58,58,59,59,60,60,61,61,62,62],"right_children":[2,4,6,8,10,12,14,16,18,20,22,24,26,28,30,32,34,36,38,40,42,44,46,48,50,52,54,56,58,60,62,64,66,68,70,72,74,76,-1,78,80,82,84,86,88,-1,-1,90,92,94,-1,96,98,100,102,104,106,108,110,112,114,116,118,-1,-1,-1,-1,-1,-1,-1,-1,-1,-1,-1,-1,-1,-1,-1,-1,-1,-1,-1,-1,-1,-1,-1,-1,-1,-1,-1,-1,-1,-1,-1,-1,-1,-1,-1,-1,-1,-1,-1,-1,-1,-1,-1,-1,-1,-1,-1,-1,-1,-1,-1,-1,-1,-1,-1,-1],"split_conditions":[1.6666667E-1,5.434847E-1,7.7777777E0,1.1111111E-1,8.75E-1,8.888889E-1,8.333333E-1,7.5E-1,2E-1,2E-1,1.25E-1,8.5714287E-1,6.125E0,8.888889E-1,1.1111111E-1,7.5E-1,1.3333334E0,1.6666667E-1,1.1428572E0,1.4285715E-1,7.428571E0,1.25E-1,5.58905E-1,1.4285715E-1,1.1111111E-1,6.4887226E-1,1.25E-1,5E-1,4.1092834E-1,2.2222222E-1,4.7732452E-1,7.5E-1,2E-1,1.25E-1,1.1111112E0,7.777778E-1,1.6666667E-1,1.1111111E-1,-1.0533634E-2,4E-1,6E-1,1.1111111E-1,1.6666667E-1,7.1666665E0,5.6498784E-1,4.736815E-3,1.1753094E-2,3.3333334E-1,1.75E0,3.3333334E-1,-2.0237435E-2,1.125E0,2.5E-1,1.125E0,1.25E-1,1.75E0,4.0857143E1,1.25E-1,1.25E-1,1.4285715E-1,1.125E0,1.6666667E-1,3.3333334E-1,1.0732723E-3,2.2184427E-3,2.758931E-3,1.5858863E-2,-1.9137776E-3,3.9510657E-3,1.1415875E-3,1.56013435E-2,-1.7523299E-3,4.8404397E-3,-1.7031273E-4,1.1395949E-2,9.913403E-3,-4.915328E-3,-1.7204336E-4,-3.573214E-3,1.8672757E-3,-5.4534036E-3,1.738089E-3,-9.737316E-3,-1.0408342E-3,1.436765E-2,-7.290253E-3,-1.4571667E-2,2.280243E-3,-2.646187E-3,-1.0335305E-3,4.7455946E-4,-3.6178615E-3,1.6296908E-2,5.6164025E-4,3.6898763E-3,1.1984822E-3,-3.7496404E-3,-5.208021E-3,6.835489E-3,8.107479E-3,-6.148297E-3,4.0520183E-3,-5.510218E-3,-3.6912307E-4,7.684417E-4,1.1978375E-3,5.926753E-3,9.326911E-3,-1.0559673E-2,-2.5456815E-3,-6.88814E-3,1.3854967E-3,3.3765105E-3,-2.9987316E-3,3.5320886E-3,6.7561246E-3,-1.1178121E-2,-3.0551942E-3,4.771951E-3],"split_indices":[142,0,142,236,139,91,312,220,75,82,71,17,290,221,211,338,257,286,128,284,187,229,0,122,313,0,66,148,0,232,0,358,359,6,290,226,278,361,0,298,275,154,360,103,0,0,0,148,201,57,0,243,181,277,252,83,364,41,237,48,288,279,43,0,0,0,0,0,0,0,0,0,0,0,0,0,0,0,0,0,0,0,0,0,0,0,0,0,0,0,0,0,0,0,0,0,0,0,0,0,0,0,0,0,0,0,0,0,0,0,0,0,0,0,0,0,0,0,0],"split_type":[0,0,0,0,0,0,0,0,0,0,0,0,0,0,0,0,0,0,0,0,0,0,0,0,0,0,0,0,0,0,0,0,0,0,0,0,0,0,0,0,0,0,0,0,0,0,0,0,0,0,0,0,0,0,0,0,0,0,0,0,0,0,0,0,0,0,0,0,0,0,0,0,0,0,0,0,0,0,0,0,0,0,0,0,0,0,0,0,0,0,0,0,0,0,0,0,0,0,0,0,0,0,0,0,0,0,0,0,0,0,0,0,0,0,0,0,0,0,0],"sum_hessian":[1.40943E5,6.1252E4,7.9691E4,2.7349E4,3.3903E4,5.2361E4,2.733E4,2.4775E4,2.574E3,3.3658E4,2.45E2,4.9226E4,3.135E3,2.0508E4,6.822E3,2.3578E4,1.197E3,2.514E3,6E1,2.8007E4,5.651E3,2.31E2,1.4E1,4.6678E4,2.548E3,2.844E3,2.91E2,1.9806E4,7.02E2,6.017E3,8.05E2,2.2343E4,1.235E3,1.135E3,6.2E1,2.358E3,1.56E2,5.3E1,7E0,2.6019E4,1.988E3,4.622E3,1.029E3,1.82E2,4.9E1,6E0,8E0,4.5536E4,1.142E3,2.539E3,9E0,2.672E3,1.72E2,1.62E2,1.29E2,1.7356E4,2.45E3,2.1E1,6.81E2,5.648E3,3.69E2,1.33E2,6.72E2,1.9383E4,2.96E3,1.195E3,4E1,1.009E3,1.26E2,3.7E1,2.5E1,2.26E3,9.8E1,1.1E2,4.6E1,5E1,3E0,2.5607E4,4.12E2,1.904E3,8.4E1,4.593E3,2.9E1,1.015E3,1.4E1,1.48E2,3.4E1,2.3E1,2.6E1,4.1857E4,3.679E3,1.135E3,7E0,2.132E3,4.07E2,2.512E3,1.6E2,1.51E2,2.1E1,1.51E2,1.1E1,9.3E1,3.6E1,1.2378E4,4.978E3,2.258E3,1.92E2,1.8E1,3E0,5.04E2,1.77E2,3.788E3,1.86E3,2.87E2,8.2E1,1.26E2,7E0,6.02E2,7E1],"tree_param":{"num_deleted":"0","num_feature":"365","num_nodes":"119","size_leaf_vector":"1"}},{"base_weights":[5.1819872E-5,9.157585E-3,-7.002934E-3,5.4079005E-3,2.9650822E-2,-1.4345254E-2,7.1608936E-3,1.5196368E-2,-2.608005E-3,3.5703674E-2,-8.597564E-3,-1.1441648E-2,-3.502931E-2,1.8880116E-3,4.2515986E-2,1.933458E-2,-1.962174E-2,1.3341476E-3,-2.9687364E-2,2.9586466E-2,6.74044E-2,4.339306E-3,-1.1374188E-1,-1.2745514E-2,4.1993428E-2,-3.3029318E-2,-2.0333965E-1,-2.6915113E-3,3.4558527E-2,5.2047048E-2,-1.7079752E-2,1.8109033E-2,8.260865E-2,-2.4601042E-2,9.754985E-2,2.2783962E-3,-1.11857735E-1,-2.3840992E-2,-1.0441357E-1,2.577873E-2,8.149158E-2,6.026091E-2,2.0923719E-1,9.538522E-3,-2.096637E-1,-9.761063E-2,-3.97597E-1,-1.4549736E-2,1.7499296E-2,2.0074995E-1,2.901133E-2,-4.9076978E-2,-1.5586973E-2,5.922539E-2,-2.4857731E-1,-6.7462437E-3,2.6203265E-2,3.7461232E-2,-1.8170822E-1,5.55046E-2,-1.0029165E-1,-3.1124793E-2,2.3689204E-1,7.1108836E-4,2.0277097E-3,3.321244E-3,1.2088145E-2,-1.4268563E-3,6.3481242E-3,6.782391E-3,-1.1954598E-2,2.232018E-4,-2.1404705E-3,-6.9453344E-3,5.0867153E-3,-1.0939481E-3,-1.1250994E-2,-5.730918E-3,1.2577559E-2,1.4676994E-3,-1.7166121E-3,3.0489224E-3,1.0624466E-2,2.4151248E-3,7.679663E-3,1.3727759E-2,4.2056027E-3,1.0083261E-3,-4.9795657E-3,-6.116097E-3,-1.1559673E-2,-8.567925E-3,-2.1484892E-3,-1.3338002E-2,-2.5450816E-2,-8.2901487E-4,7.809768E-4,9.965239E-4,-1.1529511E-2,5.567498E-3,1.756721E-2,2.1271063E-3,-3.5551097E-3,-2.5301776E-3,1.1994393E-2,-1.4276507E-3,2.31447E-3,-2.5578705E-3,6.0753357E-3,-1.4052257E-2,-6.346401E-3,2.0651717E-3,-4.937546E-4,1.4539617E-3,-8.881529E-3,1.6536927E-3,9.075191E-3,-1.5187417E-2,-2.7504452E-3,1.6420701E-3,3.8321633E-3,-3.0051076E-3,-1.878593E-2,-9.775029E-3,-9.3106163E-4,1.6653318E-2,4.1819946E-3],"categories":[],"categories_nodes":[],"categories_segments":[],"categories_sizes":[],"default_left":[0,0,0,0,0,0,0,0,0,0,0,0,0,0,0,0,0,0,0,0,0,0,0,0,0,0,0,0,0,0,0,0,0,0,0,0,0,0,0,0,0,0,0,0,0,0,0,0,0,0,0,0,0,0,0,0,0,0,0,0,0,0,0,0,0,0,0,0,0,0,0,0,0,0,0,0,0,0,0,0,0,0,0,0,0,0,0,0,0,0,0,0,0,0,0,0,0,0,0,0,0,0,0,0,0,0,0,0,0,0,0,0,0,0,0,0,0,0,0,0,0,0,0,0,0,0,0],"id":4,"left_children":[1,3,5,7,9,11,13,15,17,19,21,23,25,27,29,31,33,35,37,39,41,43,45,47,49,51,53,55,57,59,61,63,65,67,69,71,73,75,77,79,81,83,85,87,89,91,93,95,97,99,101,103,105,107,109,111,113,115,117,119,121,123,125,-1,-1,-1,-1,-1,-1,-1,-1,-1,-1,-1,-1,-1,-1,-1,-1,-1,-1,-1,-1,-1,-1,-1,-1,-1,-1,-1,-1,-1,-1,-1,-1,-1,-1,-1,-1,-1,-1,-1,-1,-1,-1,-1,-1,-1,-1,-1,-1,-1,-1,-1,-1,-1,-1,-1,-1,-1,-1,-1,-1,-1,-1,-1,-1],"loss_changes":[9.053128E0,4.7274275E0,8.258062E0,4.080628E0,2.203104E0,3.1407003E0,5.053987E0,3.3738618E0,3.0522969E0,1.5921526E0,1.7692368E0,3.195467E0,2.163628E0,3.5298476E0,1.9989896E0,1.6220837E0,1.4524891E0,2.6678305E0,1.5861485E0,1.3602023E0,1.339706E0,1.2900025E0,6.330937E-1,2.4430704E0,2.2487226E0,1.7805376E0,9.0413666E-1,2.4244337E0,1.8242166E0,1.6005869E0,1.7354865E0,1.7910037E0,1.0158174E0,1.4255172E0,1.317991E0,2.4394462E0,1.2001076E0,1.3279381E0,9.715922E-1,1.3797026E0,1.257837E0,1.4087238E0,5.0743437E-1,1.3133538E0,3.7572265E-2,5.423354E-1,4.1440606E-2,2.588296E0,1.5225387E0,1.091147E0,1.3703516E0,1.46774E0,2.447249E0,8.2168035E-2,2.3691869E-1,2.7283509E0,1.4953918E0,1.8060107E0,5.8694804E-1,1.4199018E0,7.3588496E-1,9.446372E-1,3.6191356E-1,0E0,0E0,0E0,0E0,0E0,0E0,0E0,0E0,0E0,0E0,0E0,0E0,0E0,0E0,0E0,0E0,0E0,0E0,0E0,0E0,0E0,0E0,0E0,0E0,0E0,0E0,0E0,0E0,0E0,0E0,0E0,0E0,0E0,0E0,0E0,0E0,0E0,0E0,0E0,0E0,0E0,0E0,0E0,0E0,0E0,0E0,0E0,0E0,0E0,0E0,0E0,0E0,0E0,0E0,0E0,0E0,0E0,0E0,0E0,0E0,0E0,0E0,0E0,0E0],"parents":[2147483647,0,0,1,1,2,2,3,3,4,4,5,5,6,6,7,7,8,8,9,9,10,10,11,11,12,12,13,13,14,14,15,15,16,16,17,17,18,18,19,19,20,20,21,21,22,22,23,23,24,24,25,25,26,26,27,27,28,28,29,29,30,30,31,31,32,32,33,33,34,34,35,35,36,36,37,37,38,38,39,39,40,40,41,41,42,42,43,43,44,44,45,45,46,46,47,47,48,48,49,49,50,50,51,51,52,52,53,53,54,54,55,55,56,56,57,57,58,58,59,59,60,60,61,61,62,62],"right_children":[2,4,6,8,10,12,14,16,18,20,22,24,26,28,30,32,34,36,38,40,42,44,46,48,50,52,54,56,58,60,62,64,66,68,70,72,74,76,78,80,82,84,86,88,90,92,94,96,98,100,102,104,106,108,110,112,114,116,118,120,122,124,126,-1,-1,-1,-1,-1,-1,-1,-1,-1,-1,-1,-1,-1,-1,-1,-1,-1,-1,-1,-1,-1,-1,-1,-1,-1,-1,-1,-1,-1,-1,-1,-1,-1,-1,-1,-1,-1,-1,-1,-1,-1,-1,-1,-1,-1,-1,-1,-1,-1,-1,-1,-1,-1,-1,-1,-1,-1,-1,-1,-1,-1,-1,-1,-1],"split_conditions":[1.6666667E-1,3.3333334E-1,7.7777777E0,5.434847E-1,6.331134E-1,5E-1,1E0,1.1111111E-1,1.1111111E-1,1.8888888E0,1.25E-1,2E-1,1.1428572E0,5E-1,5.714286E-1,1.8333334E0,7.777778E-1,8.75E-1,7E0,1.1111111E-1,6.153749E-1,1.25E-1,4.08E1,8.5714287E-1,4.522029E-1,1.1111111E-1,4.440421E-1,1.4285715E-1,1.1111111E-1,1.2E0,2.1666667E0,1.25E-1,2E-1,2E-1,1.1111111E-1,1.1111111E-1,1.25E-1,7.714286E0,8.75E-1,5.714286E-1,1.1111111E-1,2.142857E0,1.1111111E-1,1.4285715E-1,6.3709056E-1,1.1111111E-1,6.377754E-1,8.888889E-1,1.25E-1,1.1111111E-1,1.1111111E-1,4.5142857E1,3.75E-1,3.7659493E-1,1.1111111E-1,4.542747E-1,1.6666667E-1,1.2E0,1.1111111E-1,1.1111111E-1,1.1111111E-1,4.72394E-1,1.1111111E-1,7.1108836E-4,2.0277097E-3,3.321244E-3,1.2088145E-2,-1.4268563E-3,6.3481242E-3,6.782391E-3,-1.1954598E-2,2.232018E-4,-2.1404705E-3,-6.9453344E-3,5.0867153E-3,-1.0939481E-3,-1.1250994E-2,-5.730918E-3,1.2577559E-2,1.4676994E-3,-1.7166121E-3,3.0489224E-3,1.0624466E-2,2.4151248E-3,7.679663E-3,1.3727759E-2,4.2056027E-3,1.0083261E-3,-4.9795657E-3,-6.116097E-3,-1.1559673E-2,-8.567925E-3,-2.1484892E-3,-1.3338002E-2,-2.5450816E-2,-8.2901487E-4,7.809768E-4,9.965239E-4,-1.1529511E-2,5.567498E-3,1.756721E-2,2.1271063E-3,-3.5551097E-3,-2.5301776E-3,1.1994393E-2,-1.4276507E-3,2.31447E-3,-2.5578705E-3,6.0753357E-3,-1.4052257E-2,-6.346401E-3,2.0651717E-3,-4.937546E-4,1.4539617E-3,-8.881529E-3,1.6536927E-3,9.075191E-3,-1.5187417E-2,-2.7504452E-3,1.6420701E-3,3.8321633E-3,-3.0051076E-3,-1.878593E-2,-9.775029E-3,-9.3106163E-4,1.6653318E-2,4.1819946E-3],"split_indices":[142,82,142,0,0,237,48,236,137,259,10,247,189,148,221,3,226,139,103,115,0,344,364,17,0,83,0,303,121,285,312,57,338,75,290,128,304,187,110,130,173,177,85,33,0,85,0,91,87,121,352,364,99,0,263,0,202,223,132,250,210,0,88,0,0,0,0,0,0,0,0,0,0,0,0,0,0,0,0,0,0,0,0,0,0,0,0,0,0,0,0,0,0,0,0,0,0,0,0,0,0,0,0,0,0,0,0,0,0,0,0,0,0,0,0,0,0,0,0,0,0,0,0,0,0,0,0],"split_type":[0,0,0,0,0,0,0,0,0,0,0,0,0,0,0,0,0,0,0,0,0,0,0,0,0,0,0,0,0,0,0,0,0,0,0,0,0,0,0,0,0,0,0,0,0,0,0,0,0,0,0,0,0,0,0,0,0,0,0,0,0,0,0,0,0,0,0,0,0,0,0,0,0,0,0,0,0,0,0,0,0,0,0,0,0,0,0,0,0,0,0,0,0,0,0,0,0,0,0,0,0,0,0,0,0,0,0,0,0,0,0,0,0,0,0,0,0,0,0,0,0,0,0,0,0,0,0],"sum_hessian":[1.40928E5,6.1521E4,7.9407E4,5.2006E4,9.515E3,5.2297E4,2.711E4,2.3414E4,2.8592E4,8.215E3,1.3E3,4.586E4,6.437E3,2.3592E4,3.518E3,2.0927E4,2.487E3,2.4959E4,3.633E3,6.887E3,1.328E3,1.158E3,1.42E2,4.4768E4,1.092E3,6.362E3,7.5E1,2.0692E4,2.9E3,3.033E3,4.85E2,2.053E4,3.97E2,2.386E3,1.01E2,2.4753E4,2.06E2,3.37E3,2.63E2,6.417E3,4.7E2,1.265E3,6.3E1,1.131E3,2.7E1,1.35E2,7E0,4.2248E4,2.52E3,8.2E1,1.01E3,3.313E3,3.049E3,1.1E1,6.4E1,1.8146E4,2.546E3,2.862E3,3.8E1,2.966E3,6.7E1,4.6E2,2.5E1,1.75E4,3.03E3,3.61E2,3.6E1,2.326E3,6E1,9.1E1,1E1,2.3609E4,1.144E3,1.83E2,2.3E1,3.338E3,3.2E1,2.56E2,7E0,6.057E3,3.6E2,4.07E2,6.3E1,1.122E3,1.43E2,4.1E1,2.2E1,1.031E3,1E2,6E0,2.1E1,5.7E1,7.8E1,4E0,3E0,3.9584E4,2.664E3,2.496E3,2.4E1,5.2E1,3E1,8.9E2,1.2E2,3.296E3,1.7E1,2.521E3,5.28E2,4E0,7E0,5E1,1.4E1,1.109E3,1.7037E4,2.511E3,3.5E1,2.778E3,8.4E1,1.9E1,1.9E1,1.432E3,1.534E3,5.9E1,8E0,3.2E1,4.28E2,1.5E1,1E1],"tree_param":{"num_deleted":"0","num_feature":"365","num_nodes":"127","size_leaf_vector":"1"}},{"base_weights":[1.6754912E-4,3.7015756E-3,-1.679838E-2,1.2185503E-2,-2.692545E-3,-1.8998286E-2,4.331015E-2,1.5109256E-2,-1.0996381E-2,4.163313E-5,-2.3448752E-2,-1.4754876E-2,-5.091166E-2,2.8667308E-2,1.5760258E-1,1.7438965E-2,-1.4862792E-2,6.566252E-2,-1.4538506E-2,2.7651093E-3,-2.479783E-2,-2.5134636E-2,1.6317396E-1,-2.0685881E-2,7.3331296E-3,-4.9192194E-2,-1.7664105E-2,2.1812478E-2,1.6896388E-2,2.683192E-1,2.2723002E-2,1.4171639E-2,4.47811E-2,-9.733376E-3,-1.2080339E-1,7.8859314E-2,-1.6698013E-1,-1.0725797E-2,-8.648796E-2,2.1653238E-3,1.102218E-1,-3.2730367E-2,1.3456625E-2,-2.6011191E-2,2.3871982E-1,2.0260914E-1,1.9251086E-2,-2.3133667E-2,3.2934606E-2,1.23776905E-2,-8.203254E-2,-5.4541174E-2,1.5895998E-2,8.469973E-3,1.8468139E-1,1.6118506E-2,1.373453E-1,-2.6263306E-2,1.3306985E-2,6.2037224E-4,2.4616912E-3,1.843898E-3,4.75347E-3,-7.3024625E-4,3.928834E-3,-7.3543782E-3,1.9157235E-2,4.4771954E-3,-4.353821E-3,-1.089717E-2,-2.041882E-3,-3.6188934E-4,-4.126775E-3,-8.803932E-3,-1.4111303E-3,2.391941E-4,-1.0264403E-3,3.7378774E-3,8.363142E-3,-1.3765193E-3,-6.1283875E-3,5.6484237E-6,5.000753E-3,-1.4774437E-3,1.6432389E-3,1.0087921E-2,1.5698832E-2,8.723417E-3,1.8366346E-2,3.3883066E-3,-1.8508021E-3,-1.2115036E-3,4.762014E-3,2.0703136E-3,-7.260819E-3,7.9327956E-4,-4.0223124E-3,-4.8350664E-3,5.735177E-3,-2.0373322E-3,-3.887585E-3,2.914422E-3,-4.665038E-3,8.0077443E-4,-1.2579192E-2,-2.223302E-3,1.2028416E-2,3.705189E-3,9.625385E-3,-2.4260452E-3,5.357491E-4],"categories":[],"categories_nodes":[],"categories_segments":[],"categories_sizes":[],"default_left":[0,0,0,0,0,0,0,0,0,0,0,0,0,0,0,0,0,0,0,0,0,0,0,0,0,0,0,0,0,0,0,0,0,0,0,0,0,0,0,0,0,0,0,0,0,0,0,0,0,0,0,0,0,0,0,0,0,0,0,0,0,0,0,0,0,0,0,0,0,0,0,0,0,0,0,0,0,0,0,0,0,0,0,0,0,0,0,0,0,0,0,0,0,0,0,0,0,0,0,0,0,0,0,0,0,0,0,0,0,0,0],"id":5,"left_children":[1,3,5,7,9,11,13,15,17,19,21,23,25,27,29,31,33,35,37,39,41,43,45,47,49,51,-1,53,-1,55,57,59,61,63,65,67,69,71,73,75,77,79,81,83,85,87,89,91,93,95,97,99,101,103,105,-1,107,109,-1,-1,-1,-1,-1,-1,-1,-1,-1,-1,-1,-1,-1,-1,-1,-1,-1,-1,-1,-1,-1,-1,-1,-1,-1,-1,-1,-1,-1,-1,-1,-1,-1,-1,-1,-1,-1,-1,-1,-1,-1,-1,-1,-1,-1,-1,-1,-1,-1,-1,-1,-1,-1],"loss_changes":[8.465298E0,6.3386717E0,3.2188993E0,3.4037304E0,3.7813594E0,3.17939E0,1.4361707E0,3.113923E0,1.5277286E0,3.9829433E0,2.44212E0,2.7152019E0,1.4239378E0,1.6127596E0,1.4529591E0,3.696168E0,1.7473011E0,7.69513E-1,1.4744298E0,3.4195518E0,1.7655687E0,1.7808595E0,3.9250588E-1,2.1448326E0,1.9784389E0,9.545541E-1,0E0,1.6214217E0,0E0,3.566022E-1,5.341166E-1,2.286004E0,1.75352E0,1.3206632E0,1.9951866E0,4.2142975E-1,8.2336426E-2,1.2787418E0,1.4095342E0,3.135627E0,5.8949685E-1,2.249288E0,1.1544226E0,1.5962572E0,3.925681E-2,2.2057962E-1,4.3566152E-2,2.0291214E0,1.0798459E0,1.3453782E0,6.822846E-1,8.0926704E-1,9.6788996E-1,1.3569415E0,7.289071E-1,0E0,5.042833E-2,3.1124244E-2,0E0,0E0,0E0,0E0,0E0,0E0,0E0,0E0,0E0,0E0,0E0,0E0,0E0,0E0,0E0,0E0,0E0,0E0,0E0,0E0,0E0,0E0,0E0,0E0,0E0,0E0,0E0,0E0,0E0,0E0,0E0,0E0,0E0,0E0,0E0,0E0,0E0,0E0,0E0,0E0,0E0,0E0,0E0,0E0,0E0,0E0,0E0,0E0,0E0,0E0,0E0,0E0,0E0],"parents":[2147483647,0,0,1,1,2,2,3,3,4,4,5,5,6,6,7,7,8,8,9,9,10,10,11,11,12,12,13,13,14,14,15,15,16,16,17,17,18,18,19,19,20,20,21,21,22,22,23,23,24,24,25,25,27,27,29,29,30,30,31,31,32,32,33,33,34,34,35,35,36,36,37,37,38,38,39,39,40,40,41,41,42,42,43,43,44,44,45,45,46,46,47,47,48,48,49,49,50,50,51,51,52,52,53,53,54,54,56,56,57,57],"right_children":[2,4,6,8,10,12,14,16,18,20,22,24,26,28,30,32,34,36,38,40,42,44,46,48,50,52,-1,54,-1,56,58,60,62,64,66,68,70,72,74,76,78,80,82,84,86,88,90,92,94,96,98,100,102,104,106,-1,108,110,-1,-1,-1,-1,-1,-1,-1,-1,-1,-1,-1,-1,-1,-1,-1,-1,-1,-1,-1,-1,-1,-1,-1,-1,-1,-1,-1,-1,-1,-1,-1,-1,-1,-1,-1,-1,-1,-1,-1,-1,-1,-1,-1,-1,-1,-1,-1,-1,-1,-1,-1,-1,-1],"split_conditions":[3.3333334E-1,5.434847E-1,7.5E-1,3.3333334E-1,1.4285715E-1,2E-1,1E0,1.1111111E-1,4.0192452E-1,1.1111111E-1,1.1111111E-1,1.6E0,2.25E0,1E0,1.25E-1,8.5714287E-1,5.555556E-1,1.1111111E-1,2E-1,1.5E1,2E-1,2E0,1.25E-1,2.5E-1,1.25E-1,1.1111111E-1,-1.7664105E-2,1.2E0,1.6896388E-2,1.25E-1,1.25E-1,4E-1,7.111111E0,1.6666667E-1,2.1111112E0,1.1111111E-1,1.6666667E-1,1.1111111E-1,5.111111E0,2E-1,1.1111111E-1,1.1111111E-1,2.5E-1,1.6666667E-1,5.623899E-1,1.6666667E-1,5.4878056E-1,1.1428572E0,1.4285715E-1,2.2222222E-1,1.4285715E-1,4.2857143E-1,1.6666667E-1,1.4285715E-1,5.204518E-1,1.6118506E-2,5.4878056E-1,1.25E-1,1.3306985E-2,6.2037224E-4,2.4616912E-3,1.843898E-3,4.75347E-3,-7.3024625E-4,3.928834E-3,-7.3543782E-3,1.9157235E-2,4.4771954E-3,-4.353821E-3,-1.089717E-2,-2.041882E-3,-3.6188934E-4,-4.126775E-3,-8.803932E-3,-1.4111303E-3,2.391941E-4,-1.0264403E-3,3.7378774E-3,8.363142E-3,-1.3765193E-3,-6.1283875E-3,5.6484237E-6,5.000753E-3,-1.4774437E-3,1.6432389E-3,1.0087921E-2,1.5698832E-2,8.723417E-3,1.8366346E-2,3.3883066E-3,-1.8508021E-3,-1.2115036E-3,4.762014E-3,2.0703136E-3,-7.260819E-3,7.9327956E-4,-4.0223124E-3,-4.8350664E-3,5.735177E-3,-2.0373322E-3,-3.887585E-3,2.914422E-3,-4.665038E-3,8.0077443E-4,-1.2579192E-2,-2.223302E-3,1.2028416E-2,3.705189E-3,9.625385E-3,-2.4260452E-3,5.357491E-4],"split_indices":[243,0,17,34,191,34,181,236,0,137,21,83,52,147,68,239,234,76,235,203,199,46,31,80,125,242,0,271,0,213,13,284,142,286,127,257,3,313,103,114,21,132,18,91,0,3,0,317,48,191,328,187,334,145,0,0,0,129,0,0,0,0,0,0,0,0,0,0,0,0,0,0,0,0,0,0,0,0,0,0,0,0,0,0,0,0,0,0,0,0,0,0,0,0,0,0,0,0,0,0,0,0,0,0,0,0,0,0,0,0,0],"split_type":[0,0,0,0,0,0,0,0,0,0,0,0,0,0,0,0,0,0,0,0,0,0,0,0,0,0,0,0,0,0,0,0,0,0,0,0,0,0,0,0,0,0,0,0,0,0,0,0,0,0,0,0,0,0,0,0,0,0,0,0,0,0,0,0,0,0,0,0,0,0,0,0,0,0,0,0,0,0,0,0,0,0,0,0,0,0,0,0,0,0,0,0,0,0,0,0,0,0,0,0,0,0,0,0,0,0,0,0,0,0,0],"sum_hessian":[1.41186E5,1.16847E5,2.4339E4,5.0217E4,6.663E4,2.348E4,8.59E2,4.4593E4,5.624E3,5.8875E4,7.755E3,2.0725E4,2.755E3,7.62E2,9.7E1,4.1377E4,3.216E3,2.48E2,5.376E3,5.3058E4,5.817E3,7.686E3,6.9E1,1.6338E4,4.387E3,2.74E3,1.5E1,7.46E2,1.6E1,5.3E1,4.4E1,3.6961E4,4.416E3,3.068E3,1.48E2,2.35E2,1.3E1,5.106E3,2.7E2,5.2764E4,2.94E2,4.818E3,9.99E2,7.661E3,2.5E1,5.4E1,1.5E1,1.5625E4,7.13E2,4.153E3,2.34E2,2.532E3,2.08E2,6.9E2,5.6E1,3.7E1,1.6E1,3.7E1,7E0,3.5191E4,1.77E3,3.817E3,5.99E2,2.908E3,1.6E2,1.41E2,7E0,2.21E2,1.4E1,9E0,4E0,4.87E3,2.36E2,1.06E2,1.64E2,4.7306E4,5.458E3,1.82E2,1.12E2,4.555E3,2.63E2,8.66E2,1.33E2,7.227E3,4.34E2,1.8E1,7E0,4.7E1,7E0,8E0,7E0,1.5482E4,1.43E2,6.81E2,3.2E1,4.003E3,1.5E2,2.18E2,1.6E1,1.589E3,9.43E2,1.5E2,5.8E1,6.71E2,1.9E1,1.1E1,4.5E1,8E0,8E0,2.3E1,1.4E1],"tree_param":{"num_deleted":"0","num_feature":"365","num_nodes":"111","size_leaf_vector":"1"}},{"base_weights":[-7.546743E-5,2.1697148E-3,-2.396201E-2,5.6655094E-4,3.308576E-2,-1.8091468E-2,-5.5595428E-2,2.0431157E-2,-1.907099E-3,1.7014904E-2,5.4490827E-2,3.561414E-4,-2.7529806E-2,-6.2149305E-2,6.455288E-2,2.2731435E-2,-3.612121E-2,4.4215028E-4,-2.38786E-2,2.1603206E-2,-6.5583035E-2,4.4590347E-2,1.2936607E-1,3.7606219E-3,-1.1726612E-1,-2.2584792E-2,-6.32391E-2,-7.243391E-2,1.099948E-2,1.6640824E-1,-1.0335061E-1,2.375695E-2,-1.0454616E-1,6.364093E-2,-5.4654267E-2,-2.0449597E-3,1.9080408E-2,-2.7422106E-2,1.5320269E-2,2.2502895E-2,-3.435125E-1,-9.157374E-2,1.7994018E-1,4.6603497E-2,-2.68107E-1,1.4515404E-1,-1.3057813E-1,8.629878E-4,1.3365549E-1,-1.0566298E-2,-2.0862249E-1,-1.7679064E-2,-7.7777505E-2,-4.53381E-2,-1.5812583E-1,-7.9068534E-2,1.104617E-1,1.2684579E-1,-3.7212793E-2,9.5649034E-2,1.4791444E-2,-2.2768828E-1,1.2612703E-1,1.1499356E-3,8.4196525E-3,-6.4748228E-3,5.1428066E-3,4.1283043E-3,-6.6819177E-3,-3.1617545E-3,8.59617E-3,-2.458252E-4,8.756399E-4,4.4189935E-4,2.21543E-3,-1.3954096E-3,1.2891391E-2,-3.5618676E-4,4.6644895E-3,7.715269E-4,3.3163975E-3,-1.1079827E-2,-2.4301074E-2,-3.244865E-3,-1.4454411E-2,1.2111844E-2,5.408648E-3,2.5896418E-3,-3.867434E-3,-4.845904E-3,-1.6171858E-2,7.7414573E-3,-9.816092E-3,-1.5901969E-3,-1.5524201E-2,-7.0649396E-5,8.357648E-3,9.2205865E-4,1.3547479E-2,1.180189E-3,-9.263414E-3,-1.2570088E-2,3.240664E-3,-7.831847E-4,-6.545043E-3,-4.1958233E-3,1.35831265E-2,-2.4558618E-3,1.7893268E-2,-4.982194E-3,-1.0770036E-2,-4.0876176E-3,9.242572E-3,1.7666372E-3,6.431795E-3,7.5074206E-3,-7.0507224E-3,-2.7744337E-3,1.66002E-2,7.4684783E-3,-5.7689724E-3,-5.337577E-3,-2.0651126E-2,2.32508E-3,8.511507E-3],"categories":[],"categories_nodes":[],"categories_segments":[],"categories_sizes":[],"default_left":[0,0,0,0,0,0,0,0,0,0,0,0,0,0,0,0,0,0,0,0,0,0,0,0,0,0,0,0,0,0,0,0,0,0,0,0,0,0,0,0,0,0,0,0,0,0,0,0,0,0,0,0,0,0,0,0,0,0,0,0,0,0,0,0,0,0,0,0,0,0,0,0,0,0,0,0,0,0,0,0,0,0,0,0,0,0,0,0,0,0,0,0,0,0,0,0,0,0,0,0,0,0,0,0,0,0,0,0,0,0,0,0,0,0,0,0,0,0,0,0,0,0,0,0,0],"id":6,"left_children":[1,3,5,7,9,11,13,15,17,19,21,23,25,27,29,31,33,35,37,39,41,43,45,47,49,51,53,55,57,59,61,63,65,67,69,71,73,75,77,79,81,83,85,87,89,91,93,95,97,99,101,103,105,107,109,111,113,115,117,119,-1,121,123,-1,-1,-1,-1,-1,-1,-1,-1,-1,-1,-1,-1,-1,-1,-1,-1,-1,-1,-1,-1,-1,-1,-1,-1,-1,-1,-1,-1,-1,-1,-1,-1,-1,-1,-1,-1,-1,-1,-1,-1,-1,-1,-1,-1,-1,-1,-1,-1,-1,-1,-1,-1,-1,-1,-1,-1,-1,-1,-1,-1,-1,-1],"loss_changes":[7.575561E0,6.3996525E0,2.2533092E0,6.0319896E0,2.1892538E0,1.7825053E0,1.4977427E0,1.7687359E0,5.634595E0,1.378885E0,2.0204964E0,1.3879547E0,1.1951933E0,1.3556786E0,1.6931334E0,1.7062259E0,9.844283E-1,4.5715194E0,1.4648561E0,1.1356797E0,1.230262E0,1.5243025E0,1.3165979E0,1.2678045E0,9.4929934E-1,1.6102021E0,1.3951852E0,1.9210014E0,1.2450703E0,5.490507E-1,1.0843357E0,1.4192033E0,5.47421E-1,3.1726766E-1,8.7741935E-1,4.886525E0,2.9999309E0,1.3444691E0,1.5306621E0,1.0649295E0,9.382963E-2,9.0478814E-1,6.9609165E-2,1.5435047E0,1.3114107E-1,1.0079947E0,3.2380882E-1,1.2473723E0,1.1601429E0,2.738024E-1,6.2225986E-1,1.2458842E0,1.0528917E0,1.0655155E0,4.263842E-1,1.0873804E0,7.350767E-2,4.1942716E-1,1.0719837E0,4.6774793E-1,0E0,5.2709067E-1,4.345034E-2,0E0,0E0,0E0,0E0,0E0,0E0,0E0,0E0,0E0,0E0,0E0,0E0,0E0,0E0,0E0,0E0,0E0,0E0,0E0,0E0,0E0,0E0,0E0,0E0,0E0,0E0,0E0,0E0,0E0,0E0,0E0,0E0,0E0,0E0,0E0,0E0,0E0,0E0,0E0,0E0,0E0,0E0,0E0,0E0,0E0,0E0,0E0,0E0,0E0,0E0,0E0,0E0,0E0,0E0,0E0,0E0,0E0,0E0,0E0,0E0,0E0,0E0],"parents":[2147483647,0,0,1,1,2,2,3,3,4,4,5,5,6,6,7,7,8,8,9,9,10,10,11,11,12,12,13,13,14,14,15,15,16,16,17,17,18,18,19,19,20,20,21,21,22,22,23,23,24,24,25,25,26,26,27,27,28,28,29,29,30,30,31,31,32,32,33,33,34,34,35,35,36,36,37,37,38,38,39,39,40,40,41,41,42,42,43,43,44,44,45,45,46,46,47,47,48,48,49,49,50,50,51,51,52,52,53,53,54,54,55,55,56,56,57,57,58,58,59,59,61,61,62,62],"right_children":[2,4,6,8,10,12,14,16,18,20,22,24,26,28,30,32,34,36,38,40,42,44,46,48,50,52,54,56,58,60,62,64,66,68,70,72,74,76,78,80,82,84,86,88,90,92,94,96,98,100,102,104,106,108,110,112,114,116,118,120,-1,122,124,-1,-1,-1,-1,-1,-1,-1,-1,-1,-1,-1,-1,-1,-1,-1,-1,-1,-1,-1,-1,-1,-1,-1,-1,-1,-1,-1,-1,-1,-1,-1,-1,-1,-1,-1,-1,-1,-1,-1,-1,-1,-1,-1,-1,-1,-1,-1,-1,-1,-1,-1,-1,-1,-1,-1,-1,-1,-1,-1,-1,-1,-1],"split_conditions":[1.6666667E-1,1E0,2E-1,4.7534478E-1,6.666667E-1,5.35548E-1,2.857143E-1,1.4285715E-1,1.4285715E-1,1.1428572E0,5E-1,5.714286E-1,1.1111111E-1,1.1111112E0,1.25E-1,1.625E0,4.0192452E-1,8E-1,7.5E-1,1.1428572E0,2E-1,1.6666667E-1,1.25E-1,2.1111112E0,4.7698393E-1,1.25E-1,1.25E-1,1.1111112E0,4.9799162E-1,1.6666667E-1,1.1111111E-1,1.6666666E0,1.1111112E0,1.125E0,1.25E-1,6.25E-1,7.5E-1,3E0,1.6666667E-1,1E0,6.7313826E-1,5.9678423E-1,4.9822783E-1,1.25E-1,4.1775024E-1,1.1111111E-1,1.25E-1,1.25E0,1.25E-1,1.25E-1,1.25E-1,1.1111111E-1,2E0,1.4285715E-1,1.4285715E-1,2.3333333E0,4.7460973E-1,1.1111111E-1,1.1111111E-1,1.25E-1,1.4791444E-2,1.1111111E-1,4.0192452E-1,1.1499356E-3,8.4196525E-3,-6.4748228E-3,5.1428066E-3,4.1283043E-3,-6.6819177E-3,-3.1617545E-3,8.59617E-3,-2.458252E-4,8.756399E-4,4.4189935E-4,2.21543E-3,-1.3954096E-3,1.2891391E-2,-3.5618676E-4,4.6644895E-3,7.715269E-4,3.3163975E-3,-1.1079827E-2,-2.4301074E-2,-3.244865E-3,-1.4454411E-2,1.2111844E-2,5.408648E-3,2.5896418E-3,-3.867434E-3,-4.845904E-3,-1.6171858E-2,7.7414573E-3,-9.816092E-3,-1.5901969E-3,-1.5524201E-2,-7.0649396E-5,8.357648E-3,9.2205865E-4,1.3547479E-2,1.180189E-3,-9.263414E-3,-1.2570088E-2,3.240664E-3,-7.831847E-4,-6.545043E-3,-4.1958233E-3,1.35831265E-2,-2.4558618E-3,1.7893268E-2,-4.982194E-3,-1.0770036E-2,-4.0876176E-3,9.242572E-3,1.7666372E-3,6.431795E-3,7.5074206E-3,-7.0507224E-3,-2.7744337E-3,1.66002E-2,7.4684783E-3,-5.7689724E-3,-5.337577E-3,-2.0651126E-2,2.32508E-3,8.511507E-3],"split_indices":[210,80,237,0,348,0,118,222,34,99,10,167,137,83,68,35,0,48,17,53,270,279,252,318,0,101,227,252,0,334,203,204,280,288,306,82,238,126,334,3,0,0,0,31,0,53,13,42,95,52,32,236,286,166,133,328,0,327,100,243,0,291,0,0,0,0,0,0,0,0,0,0,0,0,0,0,0,0,0,0,0,0,0,0,0,0,0,0,0,0,0,0,0,0,0,0,0,0,0,0,0,0,0,0,0,0,0,0,0,0,0,0,0,0,0,0,0,0,0,0,0,0,0,0,0],"split_type":[0,0,0,0,0,0,0,0,0,0,0,0,0,0,0,0,0,0,0,0,0,0,0,0,0,0,0,0,0,0,0,0,0,0,0,0,0,0,0,0,0,0,0,0,0,0,0,0,0,0,0,0,0,0,0,0,0,0,0,0,0,0,0,0,0,0,0,0,0,0,0,0,0,0,0,0,0,0,0,0,0,0,0,0,0,0,0,0,0,0,0,0,0,0,0,0,0,0,0,0,0,0,0,0,0,0,0,0,0,0,0,0,0,0,0,0,0,0,0,0,0,0,0,0,0],"sum_hessian":[1.41256E5,1.2912E5,1.2136E4,1.22755E5,6.365E3,1.0237E4,1.899E3,1.3593E4,1.09162E5,3.636E3,2.729E3,3.465E3,6.772E3,1.801E3,9.8E1,1.3062E4,5.31E2,9.8618E4,1.0544E4,3.445E3,1.91E2,2.411E3,3.18E2,3.368E3,9.7E1,5.949E3,8.23E2,1.579E3,2.22E2,6.1E1,3.7E1,1.2958E4,1.04E2,8.3E1,4.48E2,8.7008E4,1.161E4,9.67E3,8.74E2,3.437E3,8E0,1.73E2,1.8E1,2.396E3,1.5E1,3E2,1.8E1,3.295E3,7.3E1,4.5E1,5.2E1,5.464E3,4.85E2,6.93E2,1.3E2,1.524E3,5.5E1,6.5E1,1.57E2,4E1,2.1E1,2.4E1,1.3E1,1.2891E4,6.7E1,9.3E1,1.1E1,7.6E1,7E0,4.32E2,1.6E1,7.5869E4,1.1139E4,8.258E3,3.352E3,9.654E3,1.6E1,6.79E2,1.95E2,2.96E3,4.77E2,5E0,3E0,1.53E2,2E1,9E0,9E0,2.3E3,9.6E1,4E0,1.1E1,2.92E2,8E0,1.2E1,6E0,3.251E3,4.4E1,4E1,3.3E1,3.8E1,7E0,4.5E1,7E0,5.369E3,9.5E1,4.77E2,8E0,6.87E2,6E0,6.5E1,6.5E1,1.509E3,1.5E1,1.1E1,4.4E1,6E1,5E0,1.5E2,7E0,3.2E1,8E0,1.5E1,9E0,5E0,8E0],"tree_param":{"num_deleted":"0","num_feature":"365","num_nodes":"125","size_leaf_vector":"1"}},{"base_weights":[-1.179553E-4,2.107618E-3,-2.40225E-2,1.0044757E-2,-4.9625426E-3,-2.299152E-2,-1.792769E-1,5.1010926E-3,2.735004E-2,-2.805282E-3,-2.906368E-2,-1.967867E-2,-6.645498E-2,-1.2722783E-1,-3.7415433E-1,-3.417661E-4,2.0626957E-2,2.1797057E-2,7.2659224E-2,-2.0297016E-3,-7.830604E-2,-2.481454E-2,-8.0739945E-2,-2.3919776E-2,1.201692E-2,-8.251314E-2,5.6234155E-2,-9.6989095E-2,-1.9246878E-2,-2.0195402E-2,-1.24966195E-2,3.6483895E-2,-2.4956488E-3,1.7605038E-2,8.054973E-2,2.3376083E-2,-1.1546223E-1,6.628965E-2,2.1664175E-1,-3.5486168E-3,2.834971E-2,-8.343441E-2,1.7970325E-2,-3.232785E-2,5.7297237E-3,-1.5394293E-1,-3.3051804E-2,-3.0366054E-2,-2.0886252E-3,1.6593509E-3,1.3712399E-1,-1.028471E-1,9.329155E-3,1.0224378E-1,-2.1383002E-1,-5.869769E-2,-2.6559362E-1,1.7401446E-3,1.8834604E-2,7.189429E-6,-1.6433423E-3,7.2788016E-4,3.719242E-3,4.3322654E-3,-1.1532302E-2,1.0669891E-3,4.7565103E-3,-6.73598E-3,5.0694435E-3,2.5313273E-3,5.7901824E-3,1.2312948E-2,-9.622653E-3,-6.588201E-5,-1.4456388E-3,2.123487E-3,-1.0613087E-3,-3.8499576E-3,-1.8782554E-2,-1.968493E-3,1.2684255E-3,-2.7054167E-4,8.744913E-3,-5.5420757E-3,-1.4021096E-2,-6.039709E-3,1.3484926E-3,-1.2740357E-3,-3.4257122E-3,-5.4323545E-4,3.319136E-3,3.9272994E-4,-8.677216E-3,9.076619E-3,-7.7893394E-3,-5.4281843E-3,5.38129E-3,1.9755594E-3,-1.2298935E-2,6.114003E-3,-1.3377162E-2,-1.5174243E-2,9.5617416E-4,-4.701732E-3,2.8005398E-3,-5.774155E-3,-1.74543E-2],"categories":[],"categories_nodes":[],"categories_segments":[],"categories_sizes":[],"default_left":[0,0,0,0,0,0,0,0,0,0,0,0,0,0,0,0,0,0,0,0,0,0,0,0,0,0,0,0,0,0,0,0,0,0,0,0,0,0,0,0,0,0,0,0,0,0,0,0,0,0,0,0,0,0,0,0,0,0,0,0,0,0,0,0,0,0,0,0,0,0,0,0,0,0,0,0,0,0,0,0,0,0,0,0,0,0,0,0,0,0,0,0,0,0,0,0,0,0,0,0,0,0,0,0,0,0,0],"id":7,"left_children":[1,3,5,7,9,11,13,15,17,19,21,23,25,27,29,31,33,35,37,39,41,43,45,47,49,51,53,55,-1,-1,-1,57,59,61,63,65,67,69,71,73,75,77,-1,79,81,83,85,87,89,91,93,95,97,99,101,103,105,-1,-1,-1,-1,-1,-1,-1,-1,-1,-1,-1,-1,-1,-1,-1,-1,-1,-1,-1,-1,-1,-1,-1,-1,-1,-1,-1,-1,-1,-1,-1,-1,-1,-1,-1,-1,-1,-1,-1,-1,-1,-1,-1,-1,-1,-1,-1,-1,-1,-1],"loss_changes":[7.5345817E0,7.2706084E0,1.9287119E0,5.221867E0,3.5626624E0,1.7248254E0,7.825818E-1,4.0120087E0,3.4115477E0,3.6828275E0,1.2351213E0,1.4970255E0,1.6740029E0,4.761765E-1,1.0510445E-2,2.7883565E0,2.2308502E0,2.6200614E0,1.3505964E0,2.8727527E0,1.4505112E0,1.1940069E0,1.4898214E0,1.3821449E0,1.703222E0,1.4020514E0,1.2348483E0,3.634311E-1,0E0,0E0,0E0,1.1043432E0,2.6623318E0,2.0295663E0,1.1320179E0,1.7443771E0,5.810269E-1,1.0971761E0,7.809615E-1,3.3550994E0,2.0756392E0,1.1749473E0,0E0,1.6969976E0,1.9369323E0,9.0302396E-1,1.3682706E0,1.4122543E0,1.346099E0,1.3189365E0,1.3214133E0,7.4520063E-1,1.0566889E0,6.424309E-1,3.057403E-1,1.9517227E-1,1.1144066E-1,0E0,0E0,0E0,0E0,0E0,0E0,0E0,0E0,0E0,0E0,0E0,0E0,0E0,0E0,0E0,0E0,0E0,0E0,0E0,0E0,0E0,0E0,0E0,0E0,0E0,0E0,0E0,0E0,0E0,0E0,0E0,0E0,0E0,0E0,0E0,0E0,0E0,0E0,0E0,0E0,0E0,0E0,0E0,0E0,0E0,0E0,0E0,0E0,0E0,0E0],"parents":[2147483647,0,0,1,1,2,2,3,3,4,4,5,5,6,6,7,7,8,8,9,9,10,10,11,11,12,12,13,13,14,14,15,15,16,16,17,17,18,18,19,19,20,20,21,21,22,22,23,23,24,24,25,25,26,26,27,27,31,31,32,32,33,33,34,34,35,35,36,36,37,37,38,38,39,39,40,40,41,41,43,43,44,44,45,45,46,46,47,47,48,48,49,49,50,50,51,51,52,52,53,53,54,54,55,55,56,56],"right_children":[2,4,6,8,10,12,14,16,18,20,22,24,26,28,30,32,34,36,38,40,42,44,46,48,50,52,54,56,-1,-1,-1,58,60,62,64,66,68,70,72,74,76,78,-1,80,82,84,86,88,90,92,94,96,98,100,102,104,106,-1,-1,-1,-1,-1,-1,-1,-1,-1,-1,-1,-1,-1,-1,-1,-1,-1,-1,-1,-1,-1,-1,-1,-1,-1,-1,-1,-1,-1,-1,-1,-1,-1,-1,-1,-1,-1,-1,-1,-1,-1,-1,-1,-1,-1,-1,-1,-1,-1,-1],"split_conditions":[2.5E-1,5.557146E-1,1.25E0,7.7777777E0,1.6666667E-1,1.3333334E0,6.111111E0,7.1428573E-1,2.5E-1,1.4285715E-1,1.25E-1,8E-1,2E-1,4.111111E1,5.9678423E-1,4.1775024E-1,2E-1,1.4285715E0,1.125E0,1.4285715E-1,1.5E0,8.5714287E-1,3.142857E0,7.777778E-1,1.6666667E-1,7.1428573E-1,1.1111111E-1,1.25E-1,-1.9246878E-2,-2.0195402E-2,-1.24966195E-2,3E0,5E-1,1.6666667E-1,1.125E0,1.125E0,1.2E0,1.1111111E-1,2.5E-1,2E-1,1E0,1.1111111E-1,1.7970325E-2,1.4285715E-1,1.5E0,6.331134E-1,5.9678423E-1,8.5714287E-1,1.4285715E-1,1.1111111E-1,1.1666666E0,6.25E-1,1.1111111E-1,1.4285715E-1,2E-1,1.1111111E-1,4.542747E-1,1.7401446E-3,1.8834604E-2,7.189429E-6,-1.6433423E-3,7.2788016E-4,3.719242E-3,4.3322654E-3,-1.1532302E-2,1.0669891E-3,4.7565103E-3,-6.73598E-3,5.0694435E-3,2.5313273E-3,5.7901824E-3,1.2312948E-2,-9.622653E-3,-6.588201E-5,-1.4456388E-3,2.123487E-3,-1.0613087E-3,-3.8499576E-3,-1.8782554E-2,-1.968493E-3,1.2684255E-3,-2.7054167E-4,8.744913E-3,-5.5420757E-3,-1.4021096E-2,-6.039709E-3,1.3484926E-3,-1.2740357E-3,-3.4257122E-3,-5.4323545E-4,3.319136E-3,3.9272994E-4,-8.677216E-3,9.076619E-3,-7.7893394E-3,-5.4281843E-3,5.38129E-3,1.9755594E-3,-1.2298935E-2,6.114003E-3,-1.3377162E-2,-1.5174243E-2,9.5617416E-4,-4.701732E-3,2.8005398E-3,-5.774155E-3,-1.74543E-2],"split_indices":[352,0,310,203,210,352,203,336,80,139,101,199,135,364,0,0,247,262,176,284,249,123,187,277,278,312,251,31,0,0,0,239,232,91,62,239,129,76,17,114,187,8,0,303,260,0,0,26,23,76,57,113,101,23,47,251,0,0,0,0,0,0,0,0,0,0,0,0,0,0,0,0,0,0,0,0,0,0,0,0,0,0,0,0,0,0,0,0,0,0,0,0,0,0,0,0,0,0,0,0,0,0,0,0,0,0,0],"split_type":[0,0,0,0,0,0,0,0,0,0,0,0,0,0,0,0,0,0,0,0,0,0,0,0,0,0,0,0,0,0,0,0,0,0,0,0,0,0,0,0,0,0,0,0,0,0,0,0,0,0,0,0,0,0,0,0,0,0,0,0,0,0,0,0,0,0,0,0,0,0,0,0,0,0,0,0,0,0,0,0,0,0,0,0,0,0,0,0,0,0,0,0,0,0,0,0,0,0,0,0,0,0,0,0,0,0,0],"sum_hessian":[1.41623E5,1.29561E5,1.2062E4,6.1038E4,6.8523E4,1.1983E4,7.9E1,4.7476E4,1.3562E4,6.2894E4,5.629E3,1.1135E4,8.48E2,6.3E1,1.6E1,3.5153E4,1.2323E4,1.2082E4,1.48E3,6.2255E4,6.39E2,5.202E3,4.27E2,9.821E3,1.314E3,7.5E2,9.8E1,5.7E1,6E0,1.2E1,4E0,1.942E3,3.3211E4,1.1732E4,5.91E2,1.1945E4,1.37E2,1.418E3,6.2E1,5.9291E4,2.964E3,6.32E2,7E0,4.175E3,1.027E3,1.68E2,2.59E2,7.582E3,2.239E3,1.214E3,1E2,6.14E2,1.36E2,8.4E1,1.4E1,4.7E1,1E1,1.933E3,9E0,3.0556E4,2.655E3,1.1135E4,5.97E2,5.8E2,1.1E1,1.1616E4,3.29E2,1.26E2,1.1E1,1.078E3,3.4E2,5.8E1,4E0,5.4498E4,4.793E3,2.307E3,6.57E2,6.19E2,1.3E1,3.721E3,4.54E2,9.64E2,6.3E1,1.26E2,4.2E1,1.05E2,1.54E2,6.722E3,8.6E2,1.985E3,2.54E2,1.173E3,4.1E1,8.7E1,1.3E1,5.98E2,1.6E1,1.22E2,1.4E1,8E1,4E0,1E1,4E0,3.6E1,1.1E1,4E0,6E0],"tree_param":{"num_deleted":"0","num_feature":"365","num_nodes":"107","size_leaf_vector":"1"}},{"base_weights":[-4.2112384E-5,2.1648102E-3,-2.3833932E-2,5.7006814E-4,3.3047162E-2,-2.6788212E-2,3.3577003E-2,2.7458665E-3,-1.8775556E-2,1.6461961E-2,5.4435175E-2,5.6295965E-2,-2.8639456E-2,4.18218E-2,-2.3569167E-1,1.0034027E-2,-3.6860995E-3,-2.3499437E-2,1.7166838E-2,1.743131E-2,-1.9550273E-2,6.2049598E-2,-2.2936992E-2,3.0720493E-2,2.144928E-1,-2.4308896E-2,-6.1017986E-2,2.6281193E-2,1.632926E-1,-1.3819045E-2,-9.344035E-3,1.2102109E-2,-1.8916694E-2,-3.0327644E-3,-9.161019E-2,-1.7905291E-2,-5.154651E-2,8.6401425E-2,-3.81446E-3,1.9482542E-2,-1.379661E-1,5.3206176E-2,1.3149115E-1,-7.893064E-3,-2.8452045E-1,6.017478E-2,-7.934242E-2,6.98268E-3,1.4160181E-2,-2.184268E-2,-8.487434E-2,-5.6820787E-2,-3.12114E-1,8.523969E-3,1.7622519E-1,1.6818482E-2,1.0272729E-1,4.689011E-4,1.7779261E-3,-6.9372484E-4,-6.012124E-3,-3.7135216E-4,4.141519E-4,-5.255945E-3,5.46237E-3,-1.2859866E-3,9.108013E-5,-1.7012006E-3,-5.155556E-3,3.3874472E-3,1.0380742E-2,-4.0150658E-4,1.0465636E-2,1.0160996E-3,-1.6417805E-2,-5.110811E-3,-1.7505128E-2,2.5656924E-3,1.7077519E-2,8.661869E-3,5.2349176E-4,3.3668955E-4,-1.3455276E-2,-1.9665372E-2,-6.855541E-3,3.8133499E-3,-6.430221E-3,-6.3139037E-3,7.7871326E-4,-1.3916439E-3,1.411558E-4,-5.1427735E-3,3.9029028E-3,-3.3693486E-3,9.5274945E-4,-1.9223742E-2,-7.5704376E-3,1.2445972E-4,1.618029E-2,1.1663919E-2,-2.1142766E-3,1.0690248E-2,2.2376794E-3],"categories":[],"categories_nodes":[],"categories_segments":[],"categories_sizes":[],"default_left":[0,0,0,0,0,0,0,0,0,0,0,0,0,0,0,0,0,0,0,0,0,0,0,0,0,0,0,0,0,0,0,0,0,0,0,0,0,0,0,0,0,0,0,0,0,0,0,0,0,0,0,0,0,0,0,0,0,0,0,0,0,0,0,0,0,0,0,0,0,0,0,0,0,0,0,0,0,0,0,0,0,0,0,0,0,0,0,0,0,0,0,0,0,0,0,0,0,0,0,0,0,0,0],"id":8,"left_children":[1,3,5,7,9,11,13,15,17,19,21,23,25,27,29,31,33,35,37,39,-1,41,43,45,47,49,51,53,55,-1,-1,57,59,61,63,65,67,69,71,73,75,77,79,81,83,85,87,-1,-1,89,91,93,95,97,99,-1,101,-1,-1,-1,-1,-1,-1,-1,-1,-1,-1,-1,-1,-1,-1,-1,-1,-1,-1,-1,-1,-1,-1,-1,-1,-1,-1,-1,-1,-1,-1,-1,-1,-1,-1,-1,-1,-1,-1,-1,-1,-1,-1,-1,-1,-1,-1],"loss_changes":[7.4100084E0,6.360327E0,2.0322695E0,5.1691346E0,2.2490377E0,1.7532282E0,1.3069973E0,5.174769E0,2.1082E0,1.4144661E0,1.6323471E0,1.002126E0,1.562048E0,1.0729165E0,8.931279E-3,3.0985456E0,3.3683434E0,1.7212739E0,2.0955858E0,1.1375507E0,0E0,1.5449572E0,9.76785E-1,6.977587E-1,1.5763283E-1,1.4675784E0,1.3764834E0,1.3451877E0,6.5884185E-1,0E0,0E0,3.0861058E0,1.7620423E0,2.894386E0,1.1792555E0,1.4104612E0,1.6467562E0,7.515092E-1,9.9590063E-1,1.0307136E0,3.3475608E-1,1.2121115E0,1.4364386E0,9.006849E-1,1.8952608E-1,5.19824E-1,2.0368475E-1,0E0,0E0,1.3959355E0,1.130487E0,1.037663E0,2.2091198E-1,8.600024E-1,6.719023E-1,0E0,3.075354E-1,0E0,0E0,0E0,0E0,0E0,0E0,0E0,0E0,0E0,0E0,0E0,0E0,0E0,0E0,0E0,0E0,0E0,0E0,0E0,0E0,0E0,0E0,0E0,0E0,0E0,0E0,0E0,0E0,0E0,0E0,0E0,0E0,0E0,0E0,0E0,0E0,0E0,0E0,0E0,0E0,0E0,0E0,0E0,0E0,0E0,0E0],"parents":[2147483647,0,0,1,1,2,2,3,3,4,4,5,5,6,6,7,7,8,8,9,9,10,10,11,11,12,12,13,13,14,14,15,15,16,16,17,17,18,18,19,19,21,21,22,22,23,23,24,24,25,25,26,26,27,27,28,28,31,31,32,32,33,33,34,34,35,35,36,36,37,37,38,38,39,39,40,40,41,41,42,42,43,43,44,44,45,45,46,46,49,49,50,50,51,51,52,52,53,53,54,54,56,56],"right_children":[2,4,6,8,10,12,14,16,18,20,22,24,26,28,30,32,34,36,38,40,-1,42,44,46,48,50,52,54,56,-1,-1,58,60,62,64,66,68,70,72,74,76,78,80,82,84,86,88,-1,-1,90,92,94,96,98,100,-1,102,-1,-1,-1,-1,-1,-1,-1,-1,-1,-1,-1,-1,-1,-1,-1,-1,-1,-1,-1,-1,-1,-1,-1,-1,-1,-1,-1,-1,-1,-1,-1,-1,-1,-1,-1,-1,-1,-1,-1,-1,-1,-1,-1,-1,-1,-1],"split_conditions":[1.6666667E-1,1E0,8E-1,1.4285715E-1,6.666667E-1,4.1775024E-1,5E-1,5.557146E-1,1.1111111E-1,1.2E0,6.3709056E-1,1.1111112E0,5E-1,2.2222222E-1,1.4285715E-1,1.1111111E-1,7.1428573E-1,1E0,4.9491373E-1,8.75E-1,-1.9550273E-2,6.666667E-1,1.4285715E-1,1.1111111E-1,1.1111111E-1,2.5E-1,2.2222222E-1,1.1111111E-1,4.9491373E-1,-1.3819045E-2,-9.344035E-3,8.5714287E-1,5.555556E-1,6.875E0,1.6666667E-1,1.25E-1,1.1111111E-1,1.125E0,1.4285715E-1,1.2857143E0,1.125E0,2E0,3.3333334E-1,1.25E-1,1.25E-1,1.4285715E-1,1.25E-1,6.98268E-3,1.4160181E-2,8E-1,4.011111E1,1.1111111E-1,3.75E-1,1.1111111E-1,1.1111111E-1,1.6818482E-2,4.142857E0,4.689011E-4,1.7779261E-3,-6.9372484E-4,-6.012124E-3,-3.7135216E-4,4.141519E-4,-5.255945E-3,5.46237E-3,-1.2859866E-3,9.108013E-5,-1.7012006E-3,-5.155556E-3,3.3874472E-3,1.0380742E-2,-4.0150658E-4,1.0465636E-2,1.0160996E-3,-1.6417805E-2,-5.110811E-3,-1.7505128E-2,2.5656924E-3,1.7077519E-2,8.661869E-3,5.2349176E-4,3.3668955E-4,-1.3455276E-2,-1.9665372E-2,-6.855541E-3,3.8133499E-3,-6.430221E-3,-6.3139037E-3,7.7871326E-4,-1.3916439E-3,1.411558E-4,-5.1427735E-3,3.9029028E-3,-3.3693486E-3,9.5274945E-4,-1.9223742E-2,-7.5704376E-3,1.2445972E-4,1.618029E-2,1.1663919E-2,-2.1142766E-3,1.0690248E-2,2.2376794E-3],"split_indices":[210,80,91,34,348,0,191,0,242,310,0,83,232,64,61,236,139,243,0,298,0,233,33,62,62,167,308,302,0,0,0,239,234,187,67,246,251,49,193,53,49,148,14,344,5,336,243,0,0,213,364,299,185,160,137,0,103,0,0,0,0,0,0,0,0,0,0,0,0,0,0,0,0,0,0,0,0,0,0,0,0,0,0,0,0,0,0,0,0,0,0,0,0,0,0,0,0,0,0,0,0,0,0],"split_type":[0,0,0,0,0,0,0,0,0,0,0,0,0,0,0,0,0,0,0,0,0,0,0,0,0,0,0,0,0,0,0,0,0,0,0,0,0,0,0,0,0,0,0,0,0,0,0,0,0,0,0,0,0,0,0,0,0,0,0,0,0,0,0,0,0,0,0,0,0,0,0,0,0,0,0,0,0,0,0,0,0,0,0,0,0,0,0,0,0,0,0,0,0,0,0,0,0,0,0,0,0,0,0],"sum_hessian":[1.41124E5,1.29145E5,1.1979E4,1.22804E5,6.341E3,1.1393E4,5.86E2,1.10389E5,1.2415E4,3.572E3,2.769E3,2.48E2,1.1145E4,5.69E2,1.7E1,5.175E4,5.8639E4,1.0973E4,1.442E3,3.564E3,8E0,2.521E3,2.48E2,2.14E2,3.4E1,9.831E3,1.314E3,5.05E2,6.4E1,8E0,9E0,4.83E4,3.45E3,5.8207E4,4.32E2,9.149E3,1.824E3,3.35E2,1.107E3,3.518E3,4.6E1,2.237E3,2.84E2,2.35E2,1.3E1,1.69E2,4.5E1,1.7E1,1.7E1,9.447E3,3.84E2,1.293E3,2.1E1,4.52E2,5.3E1,1.6E1,4.8E1,4.3275E4,5.025E3,3.287E3,1.63E2,4.1926E4,1.6281E4,4.05E2,2.7E1,6.553E3,2.596E3,1.362E3,4.62E2,2.91E2,4.4E1,1.086E3,2.1E1,3.51E3,8E0,4E1,6E0,2.223E3,1.4E1,2.11E2,7.3E1,2.23E2,1.2E1,7E0,6E0,1.56E2,1.3E1,3E1,1.5E1,7.601E3,1.846E3,3.46E2,3.8E1,1.135E3,1.58E2,1.4E1,7E0,4.44E2,8E0,4.2E1,1.1E1,1.6E1,3.2E1],"tree_param":{"num_deleted":"0","num_feature":"365","num_nodes":"103","size_leaf_vector":"1"}},{"base_weights":[3.6111927E-5,7.988729E-3,-6.158124E-3,1.0694505E-2,-1.5287943E-2,-1.2971015E-2,7.0265713E-3,8.823652E-3,3.9806586E-2,-2.7106358E-2,1.1084595E-2,-1.6202044E-2,6.3878032E-3,-1.9302815E-6,2.8290125E-2,5.713655E-3,3.0855263E-2,6.686246E-2,2.1958208E-2,-2.9376473E-2,1.20652005E-1,6.544357E-3,1.4702982E-1,5.7152985E-3,-1.9127524E-2,1.5801886E-2,-2.7450068E-2,-7.6942756E-3,1.9963397E-2,3.4902528E-2,-1.22858435E-2,8.84696E-3,-1.9488854E-2,6.7122974E-3,4.3780908E-2,6.2155325E-2,2.7356097E-1,2.6926791E-2,-1.4193903E-1,8.74778E-3,-3.871272E-2,1.75987E-1,-1.5645705E-1,-7.6959715E-3,4.313188E-2,8.889672E-2,1.6396888E-2,4.984009E-4,4.9227376E-2,-1.7658977E-2,-6.1770465E-2,1.7366532E-2,-1.4527492E-1,-3.479542E-2,1.22180864E-1,-5.100397E-3,-7.077855E-2,2.1780673E-2,-1.9065316E-1,3.7586376E-2,-7.634459E-2,-2.3028294E-2,9.996583E-2,3.3788703E-4,1.8429287E-3,-1.2485352E-3,3.5705138E-3,7.6061615E-4,-3.1511248E-3,2.2795387E-3,-9.451442E-3,2.0245265E-3,5.254555E-3,1.4940552E-2,1.0233801E-2,1.5010319E-3,-9.971602E-3,-3.2515675E-3,-1.790799E-2,-1.2327725E-4,5.111284E-3,-2.135666E-3,3.3166397E-3,1.0089062E-2,-1.8975906E-3,-1.2792229E-2,-4.319703E-3,-7.5268635E-4,3.4292904E-3,1.5763863E-3,9.31452E-3,6.908861E-3,-3.1250303E-3,2.9130152E-4,-2.4366104E-3,3.352642E-3,-6.116193E-3,-7.192785E-4,-1.8347495E-3,-2.6141158E-3,-8.371475E-3,1.0465324E-4,1.7234879E-3,-9.506313E-3,-4.4023088E-4,-1.5457718E-3,-1.6991248E-2,3.8388714E-3,1.568361E-2,-5.0063117E-4,1.5582343E-3,-6.504833E-3,-2.3830633E-3,9.126099E-4,5.6393477E-3,-1.1120285E-2,-1.1228376E-4,2.323684E-3,3.87275E-4,-6.267402E-3,8.0978E-3,-1.7946474E-3,3.5680805E-3,1.153431E-2,-1.2889531E-3],"categories":[],"categories_nodes":[],"categories_segments":[],"categories_sizes":[],"default_left":[0,0,0,0,0,0,0,0,0,0,0,0,0,0,0,0,0,0,0,0,0,0,0,0,0,0,0,0,0,0,0,0,0,0,0,0,0,0,0,0,0,0,0,0,0,0,0,0,0,0,0,0,0,0,0,0,0,0,0,0,0,0,0,0,0,0,0,0,0,0,0,0,0,0,0,0,0,0,0,0,0,0,0,0,0,0,0,0,0,0,0,0,0,0,0,0,0,0,0,0,0,0,0,0,0,0,0,0,0,0,0,0,0,0,0,0,0,0,0,0,0,0,0,0,0],"id":9,"left_children":[1,3,5,7,9,11,13,15,17,19,21,23,25,27,29,31,33,35,37,39,41,43,45,47,49,51,53,55,57,59,61,63,65,67,69,71,73,75,77,79,81,83,85,87,89,91,-1,93,95,97,99,101,103,105,107,109,111,113,115,117,119,121,123,-1,-1,-1,-1,-1,-1,-1,-1,-1,-1,-1,-1,-1,-1,-1,-1,-1,-1,-1,-1,-1,-1,-1,-1,-1,-1,-1,-1,-1,-1,-1,-1,-1,-1,-1,-1,-1,-1,-1,-1,-1,-1,-1,-1,-1,-1,-1,-1,-1,-1,-1,-1,-1,-1,-1,-1,-1,-1,-1,-1,-1,-1],"loss_changes":[6.9684725E0,3.901122E0,7.143225E0,3.0220284E0,2.0106525E0,3.279523E0,4.0489993E0,3.5724182E0,1.6172338E0,1.4959393E0,1.2318058E0,2.8810053E0,2.3892016E0,3.1273532E0,1.8060384E0,3.608135E0,2.0125055E0,1.2869906E0,1.6464646E0,1.5618451E0,1.048801E0,1.007034E0,6.6375315E-1,1.201148E0,2.4818697E0,1.4800366E0,1.7963932E0,2.4051418E0,2.1697736E0,1.7294121E0,1.1388781E0,2.3781388E0,2.518529E0,1.3338649E0,1.774209E0,1.2094512E0,2.0730972E-2,1.3759698E0,9.77782E-1,9.05245E-1,1.4825702E0,3.156178E-1,6.9027185E-2,7.815132E-1,8.966216E-1,3.736343E-1,0E0,1.2395576E0,1.7364472E0,2.3876476E0,1.3184333E0,1.5180763E0,3.449924E-1,1.8368793E0,6.530775E-1,2.515436E0,7.9292417E-1,1.8021836E0,2.898972E-1,1.4986248E0,1.6041362E0,1.0473946E0,1.3590605E0,0E0,0E0,0E0,0E0,0E0,0E0,0E0,0E0,0E0,0E0,0E0,0E0,0E0,0E0,0E0,0E0,0E0,0E0,0E0,0E0,0E0,0E0,0E0,0E0,0E0,0E0,0E0,0E0,0E0,0E0,0E0,0E0,0E0,0E0,0E0,0E0,0E0,0E0,0E0,0E0,0E0,0E0,0E0,0E0,0E0,0E0,0E0,0E0,0E0,0E0,0E0,0E0,0E0,0E0,0E0,0E0,0E0,0E0,0E0,0E0,0E0,0E0],"parents":[2147483647,0,0,1,1,2,2,3,3,4,4,5,5,6,6,7,7,8,8,9,9,10,10,11,11,12,12,13,13,14,14,15,15,16,16,17,17,18,18,19,19,20,20,21,21,22,22,23,23,24,24,25,25,26,26,27,27,28,28,29,29,30,30,31,31,32,32,33,33,34,34,35,35,36,36,37,37,38,38,39,39,40,40,41,41,42,42,43,43,44,44,45,45,47,47,48,48,49,49,50,50,51,51,52,52,53,53,54,54,55,55,56,56,57,57,58,58,59,59,60,60,61,61,62,62],"right_children":[2,4,6,8,10,12,14,16,18,20,22,24,26,28,30,32,34,36,38,40,42,44,46,48,50,52,54,56,58,60,62,64,66,68,70,72,74,76,78,80,82,84,86,88,90,92,-1,94,96,98,100,102,104,106,108,110,112,114,116,118,120,122,124,-1,-1,-1,-1,-1,-1,-1,-1,-1,-1,-1,-1,-1,-1,-1,-1,-1,-1,-1,-1,-1,-1,-1,-1,-1,-1,-1,-1,-1,-1,-1,-1,-1,-1,-1,-1,-1,-1,-1,-1,-1,-1,-1,-1,-1,-1,-1,-1,-1,-1,-1,-1,-1,-1,-1,-1,-1,-1,-1,-1,-1,-1],"split_conditions":[2E-1,1.6666667E-1,7.7777777E0,2.142857E0,7.6666665E0,1E0,8.333333E-1,8.333333E-1,5.4559964E-1,1.2E0,2E0,4.763714E-1,6.134487E-1,1.625E0,6.666667E-1,6.331134E-1,8E-1,8.111111E0,1.25E-1,4.9426526E-1,1.1111111E-1,1.125E0,1.1111111E-1,4.2857143E-1,3.3333334E-1,1.125E0,2.5E-1,8.888889E-1,2.1111112E0,1.2E0,1.25E0,6.666667E-1,2E-1,1.25E-1,1.25E-1,1.6666667E-1,5.355013E-1,1.25E-1,5.9978974E-1,1.1111112E0,1.1111111E-1,1.6666667E-1,5.9678423E-1,5.555556E-1,1.1111111E-1,1.25E-1,1.6396888E-2,2.5E-1,1.1111111E-1,3.3333334E-1,1.1111111E-1,5.555556E-1,1.1111112E0,1E0,1.25E-1,7.1428573E-1,1.4285715E-1,1.2E0,1.1111111E-1,1.25E-1,3.3333334E-1,1.4285715E-1,5.2674675E-1,3.3788703E-4,1.8429287E-3,-1.2485352E-3,3.5705138E-3,7.6061615E-4,-3.1511248E-3,2.2795387E-3,-9.451442E-3,2.0245265E-3,5.254555E-3,1.4940552E-2,1.0233801E-2,1.5010319E-3,-9.971602E-3,-3.2515675E-3,-1.790799E-2,-1.2327725E-4,5.111284E-3,-2.135666E-3,3.3166397E-3,1.0089062E-2,-1.8975906E-3,-1.2792229E-2,-4.319703E-3,-7.5268635E-4,3.4292904E-3,1.5763863E-3,9.31452E-3,6.908861E-3,-3.1250303E-3,2.9130152E-4,-2.4366104E-3,3.352642E-3,-6.116193E-3,-7.192785E-4,-1.8347495E-3,-2.6141158E-3,-8.371475E-3,1.0465324E-4,1.7234879E-3,-9.506313E-3,-4.4023088E-4,-1.5457718E-3,-1.6991248E-2,3.8388714E-3,1.568361E-2,-5.0063117E-4,1.5582343E-3,-6.504833E-3,-2.3830633E-3,9.126099E-4,5.6393477E-3,-1.1120285E-2,-1.1228376E-4,2.323684E-3,3.87275E-4,-6.267402E-3,8.0978E-3,-1.7946474E-3,3.5680805E-3,1.153431E-2,-1.2889531E-3],"split_indices":[142,123,142,177,103,278,312,57,0,362,278,0,0,83,237,0,318,290,254,0,35,41,50,26,222,88,80,221,291,285,250,80,338,34,130,82,0,77,0,312,316,3,0,207,185,198,0,123,86,352,313,49,318,76,129,250,133,168,26,189,43,303,0,0,0,0,0,0,0,0,0,0,0,0,0,0,0,0,0,0,0,0,0,0,0,0,0,0,0,0,0,0,0,0,0,0,0,0,0,0,0,0,0,0,0,0,0,0,0,0,0,0,0,0,0,0,0,0,0,0,0,0,0,0,0],"split_type":[0,0,0,0,0,0,0,0,0,0,0,0,0,0,0,0,0,0,0,0,0,0,0,0,0,0,0,0,0,0,0,0,0,0,0,0,0,0,0,0,0,0,0,0,0,0,0,0,0,0,0,0,0,0,0,0,0,0,0,0,0,0,0,0,0,0,0,0,0,0,0,0,0,0,0,0,0,0,0,0,0,0,0,0,0,0,0,0,0,0,0,0,0,0,0,0,0,0,0,0,0,0,0,0,0,0,0,0,0,0,0,0,0,0,0,0,0,0,0,0,0,0,0,0,0],"sum_hessian":[1.41461E5,6.1939E4,7.9522E4,5.5489E4,6.45E3,5.243E4,2.7092E4,5.2139E4,3.35E3,4.454E3,1.996E3,4.4931E4,7.499E3,2.0362E4,6.73E3,4.569E4,6.449E3,1.331E3,2.019E3,4.387E3,6.7E1,1.932E3,6.4E1,5.291E3,3.964E4,5.867E3,1.632E3,1.4699E4,5.663E3,5.787E3,9.43E2,4.0638E4,5.052E3,2.249E3,4.2E3,1.302E3,2.9E1,1.96E3,5.9E1,8.63E2,3.524E3,5.6E1,1.1E1,1.391E3,5.41E2,4.9E1,1.5E1,4.725E3,5.66E2,3.8321E4,1.319E3,5.811E3,5.6E1,1.556E3,7.6E1,1.4119E4,5.8E2,5.615E3,4.8E1,5.651E3,1.36E2,8.61E2,8.2E1,3.7818E4,2.82E3,4.765E3,2.87E2,2.005E3,2.44E2,4.168E3,3.2E1,8.66E2,4.36E2,2E1,9E0,1.934E3,2.6E1,4.4E1,1.5E1,7.71E2,9.2E1,3.395E3,1.29E2,5E1,6E0,4E0,7E0,1.269E3,1.22E2,5.01E2,4E1,3.7E1,1.2E1,4.264E3,4.61E2,5.13E2,5.3E1,3.2699E4,5.622E3,1.211E3,1.08E2,3.07E3,2.741E3,4.2E1,1.4E1,1.537E3,1.9E1,6.2E1,1.4E1,1.2435E4,1.684E3,1.62E2,4.18E2,5.406E3,2.09E2,4.1E1,7E0,4.354E3,1.297E3,1.13E2,2.3E1,7.58E2,1.03E2,4E1,4.2E1],"tree_param":{"num_deleted":"0","num_feature":"365","num_nodes":"125","size_leaf_vector":"1"}},{"base_weights":[-3.4348585E-4,2.5862756E-3,-1.4546501E-2,9.946147E-4,3.284258E-2,-1.0883503E-2,-4.1793317E-2,3.4545711E-3,-2.082661E-2,1.0810168E-2,5.2966606E-2,-1.044353E-2,-2.3061222E-1,-4.0195495E-2,-1.668871E-2,8.882298E-4,2.0699836E-2,-2.3832658E-2,4.6657532E-2,5.5361562E-3,1.3527106E-1,5.5328723E-2,-1.1127989E-1,-1.4088437E-2,1.423267E-2,-2.7711385E-1,-9.3211554E-2,-4.2027537E-2,1.2958181E-1,1.02125835E-2,-3.8308327E-3,8.910515E-3,3.2245964E-2,-3.5724603E-2,-9.304858E-3,6.34641E-2,-2.4247116E-1,2.082412E-2,-2.8572517E-2,1.8733054E-1,-1.3712442E-1,3.76125E-2,7.935598E-2,-2.5312757E-1,3.9753247E-2,-1.6465262E-2,3.2658335E-2,-4.892385E-3,5.022705E-2,-1.7120609E-2,-7.433203E-3,-2.7590196E-3,-5.490808E-3,-4.779284E-2,1.4135192E-2,2.2004975E-1,-5.321666E-2,4.0936572E-4,2.362035E-3,-6.0779257E-5,-1.0572872E-3,5.358318E-4,-4.653701E-3,1.4620186E-3,5.7590506E-3,-2.03419E-3,1.2609856E-3,-2.9274423E-4,-5.0363615E-3,1.3804578E-3,7.4333446E-3,-1.0536539E-2,-1.7225217E-2,1.1882428E-3,-1.0415411E-2,-7.1973994E-4,-7.930304E-3,1.2310081E-2,3.9835754E-3,-1.2540065E-2,-3.6263734E-3,9.5973146E-4,5.040781E-3,3.34532E-3,8.485557E-3,-1.8236076E-2,-7.463177E-3,-5.2882044E-4,5.19421E-3,-6.120859E-4,-1.9313755E-3,2.0203458E-3,-6.3640564E-3,2.2384607E-5,-6.2921396E-3,1.7749434E-2,2.223728E-3,-1.7763984E-3,-3.9637215E-3,1.9731827E-3,-1.3534847E-2,7.899164E-3,1.4918995E-2,1.6466187E-3,-8.58706E-3],"categories":[],"categories_nodes":[],"categories_segments":[],"categories_sizes":[],"default_left":[0,0,0,0,0,0,0,0,0,0,0,0,0,0,0,0,0,0,0,0,0,0,0,0,0,0,0,0,0,0,0,0,0,0,0,0,0,0,0,0,0,0,0,0,0,0,0,0,0,0,0,0,0,0,0,0,0,0,0,0,0,0,0,0,0,0,0,0,0,0,0,0,0,0,0,0,0,0,0,0,0,0,0,0,0,0,0,0,0,0,0,0,0,0,0,0,0,0,0,0,0,0,0,0,0],"id":10,"left_children":[1,3,5,7,9,11,13,15,17,19,21,23,25,27,-1,29,31,33,35,37,39,41,43,45,47,49,51,53,55,57,59,61,63,65,67,69,71,73,75,77,79,81,83,85,87,89,91,93,95,-1,-1,-1,-1,97,99,101,103,-1,-1,-1,-1,-1,-1,-1,-1,-1,-1,-1,-1,-1,-1,-1,-1,-1,-1,-1,-1,-1,-1,-1,-1,-1,-1,-1,-1,-1,-1,-1,-1,-1,-1,-1,-1,-1,-1,-1,-1,-1,-1,-1,-1,-1,-1,-1,-1],"loss_changes":[5.8740363E0,5.6356235E0,2.4090161E0,5.9679084E0,2.5928273E0,2.0559824E0,1.3278103E0,4.4218864E0,2.2854757E0,1.8326454E0,1.1889067E0,1.9102528E0,2.5863242E-1,8.87784E-1,0E0,3.8269575E0,1.7616024E0,1.8628321E0,2.3425682E0,1.3975285E0,1.6223612E0,1.281271E0,9.3696225E-1,2.056283E0,1.881849E0,2.3875594E-1,4.2323098E-3,9.11983E-1,5.102459E-1,2.1914818E0,2.6149094E0,1.1801845E0,1.6281605E0,1.7926154E0,1.5308375E0,1.3864186E0,4.9523234E-2,1.2493752E0,1.5281076E0,5.9547186E-1,1.2675384E-1,2.0192702E0,1.4324865E0,2.3356855E-1,6.9944665E-2,1.6480689E0,1.1123676E0,1.153255E0,1.654957E0,0E0,0E0,0E0,0E0,9.8454285E-1,1.8991106E0,7.6094806E-2,1.1004107E-1,0E0,0E0,0E0,0E0,0E0,0E0,0E0,0E0,0E0,0E0,0E0,0E0,0E0,0E0,0E0,0E0,0E0,0E0,0E0,0E0,0E0,0E0,0E0,0E0,0E0,0E0,0E0,0E0,0E0,0E0,0E0,0E0,0E0,0E0,0E0,0E0,0E0,0E0,0E0,0E0,0E0,0E0,0E0,0E0,0E0,0E0,0E0,0E0],"parents":[2147483647,0,0,1,1,2,2,3,3,4,4,5,5,6,6,7,7,8,8,9,9,10,10,11,11,12,12,13,13,15,15,16,16,17,17,18,18,19,19,20,20,21,21,22,22,23,23,24,24,25,25,26,26,27,27,28,28,29,29,30,30,31,31,32,32,33,33,34,34,35,35,36,36,37,37,38,38,39,39,40,40,41,41,42,42,43,43,44,44,45,45,46,46,47,47,48,48,53,53,54,54,55,55,56,56],"right_children":[2,4,6,8,10,12,14,16,18,20,22,24,26,28,-1,30,32,34,36,38,40,42,44,46,48,50,52,54,56,58,60,62,64,66,68,70,72,74,76,78,80,82,84,86,88,90,92,94,96,-1,-1,-1,-1,98,100,102,104,-1,-1,-1,-1,-1,-1,-1,-1,-1,-1,-1,-1,-1,-1,-1,-1,-1,-1,-1,-1,-1,-1,-1,-1,-1,-1,-1,-1,-1,-1,-1,-1,-1,-1,-1,-1,-1,-1,-1,-1,-1,-1,-1,-1,-1,-1,-1,-1],"split_conditions":[3.3333334E-1,8.888889E-1,2.857143E-1,2E-1,7.1428573E-1,2.5E-1,2.25E0,7.5E-1,1.2E0,1.4285715E-1,3.3333334E-1,8E-1,5.640264E-1,1.4285715E-1,-1.668871E-2,5.346236E-1,8.5714287E-1,8E-1,2.1111112E0,1.25E-1,1.1111111E-1,1.1111111E-1,1.1111111E-1,2.5E-1,1.1111111E-1,1.1111111E-1,5.7347363E-1,1.8571428E0,1.1111111E-1,1.4285715E-1,2.5E-1,2E-1,1.2E0,1.3333334E0,1.4285715E-1,1.4285715E-1,1.4285715E-1,1.1111112E0,2E-1,1.25E-1,4.1775024E-1,1.125E0,1.4285715E-1,1.1111111E-1,1.6666667E-1,1.6666667E-1,1.4285715E-1,1.1111111E-1,4.125E0,-1.7120609E-2,-7.433203E-3,-2.7590196E-3,-5.490808E-3,5.982034E-1,1.1111111E-1,1.6666667E-1,4.763714E-1,4.0936572E-4,2.362035E-3,-6.0779257E-5,-1.0572872E-3,5.358318E-4,-4.653701E-3,1.4620186E-3,5.7590506E-3,-2.03419E-3,1.2609856E-3,-2.9274423E-4,-5.0363615E-3,1.3804578E-3,7.4333446E-3,-1.0536539E-2,-1.7225217E-2,1.1882428E-3,-1.0415411E-2,-7.1973994E-4,-7.930304E-3,1.2310081E-2,3.9835754E-3,-1.2540065E-2,-3.6263734E-3,9.5973146E-4,5.040781E-3,3.34532E-3,8.485557E-3,-1.8236076E-2,-7.463177E-3,-5.2882044E-4,5.19421E-3,-6.120859E-4,-1.9313755E-3,2.0203458E-3,-6.3640564E-3,2.2384607E-5,-6.2921396E-3,1.7749434E-2,2.223728E-3,-1.7763984E-3,-3.9637215E-3,1.9731827E-3,-1.3534847E-2,7.899164E-3,1.4918995E-2,1.6466187E-3,-8.58706E-3],"split_indices":[243,91,34,123,318,94,52,82,242,284,20,299,0,314,0,0,259,318,203,125,203,121,64,80,88,132,0,62,132,284,191,274,144,118,328,61,61,227,235,66,0,49,241,255,24,174,48,185,142,0,0,0,0,0,263,2,0,0,0,0,0,0,0,0,0,0,0,0,0,0,0,0,0,0,0,0,0,0,0,0,0,0,0,0,0,0,0,0,0,0,0,0,0,0,0,0,0,0,0,0,0,0,0,0,0],"split_type":[0,0,0,0,0,0,0,0,0,0,0,0,0,0,0,0,0,0,0,0,0,0,0,0,0,0,0,0,0,0,0,0,0,0,0,0,0,0,0,0,0,0,0,0,0,0,0,0,0,0,0,0,0,0,0,0,0,0,0,0,0,0,0,0,0,0,0,0,0,0,0,0,0,0,0,0,0,0,0,0,0,0,0,0,0,0,0,0,0,0,0,0,0,0,0,0,0,0,0,0,0,0,0,0,0],"sum_hessian":[1.41163E5,1.17024E5,2.4139E4,1.11176E5,5.848E3,2.1279E4,2.86E3,9.9913E4,1.1263E4,2.792E3,3.056E3,2.1237E4,4.2E1,2.845E3,1.5E1,8.6971E4,1.2942E4,1.0783E4,4.8E2,2.679E3,1.13E2,3.013E3,4.3E1,1.8504E4,2.733E3,3.1E1,1.1E1,2.815E3,3E1,2.9225E4,5.7746E4,6.404E3,6.538E3,5.929E3,4.854E3,4.54E2,2.6E1,1.85E3,8.29E2,9.5E1,1.8E1,1.735E3,1.278E3,2.2E1,2.1E1,1.7609E4,8.95E2,1.785E3,9.48E2,2E1,1.1E1,4E0,7E0,2.553E3,2.62E2,2E1,1E1,2.771E4,1.515E3,5.0169E4,7.577E3,6.293E3,1.11E2,6.31E3,2.28E2,5.483E3,4.46E2,4.678E3,1.76E2,3.2E2,1.34E2,2.1E1,5E0,1.827E3,2.3E1,7.48E2,8.1E1,6.1E1,3.4E1,6E0,1.2E1,1.344E3,3.91E2,1.124E3,1.54E2,1E1,1.2E1,1.2E1,9E0,1.4791E4,2.818E3,8.54E2,4.1E1,1.71E3,7.5E1,1.7E1,9.31E2,1.838E3,7.15E2,2.41E2,2.1E1,1.2E1,8E0,6E0,4E0],"tree_param":{"num_deleted":"0","num_feature":"365","num_nodes":"105","size_leaf_vector":"1"}},{"base_weights":[-3.0632532E-4,1.9280494E-3,-2.4096167E-2,1.5126604E-2,-1.6144932E-3,-2.3101443E-2,-1.66046E-1,3.2665014E-2,1.01881465E-2,-4.110691E-3,1.7165188E-2,-2.722908E-2,8.611443E-3,-1.20369546E-1,-3.5064077E-1,3.4114942E-2,-1.262619E-1,7.6119252E-3,5.6260772E-2,-5.9527815E-3,2.7223306E-2,1.9530497E-2,-4.2514842E-2,-2.4055319E-2,-6.8320945E-2,1.2678767E-3,1.4818293E-1,-1.8761142E-1,-1.6706903E-2,-1.896345E-2,-1.1607895E-2,2.633302E-2,6.455844E-2,-1.6501206E-1,6.378662E-3,8.331438E-3,-1.1777505E-1,5.2112576E-2,1.6749963E-2,-1.0990724E-2,4.278942E-3,2.1114467E-2,1.0629352E-1,3.461635E-2,8.615695E-3,-2.823856E-2,-2.5641415E-1,-2.446944E-2,3.0500746E-1,-4.7467105E-2,-1.6597924E-1,-5.763957E-3,1.4296325E-1,3.3680167E-2,2.1623422E-1,-1.525348E-1,-1.8237606E-2,-5.158011E-2,4.9964045E-3,1.5077753E-3,-2.3014438E-3,2.6287725E-3,7.945648E-3,-9.752765E-3,-7.8464E-4,6.235211E-4,-7.188308E-4,-9.277472E-3,-1.4351787E-3,2.346583E-3,1.1201731E-2,-4.8574244E-4,-3.3139426E-3,2.912647E-4,-2.902183E-3,1.1460057E-3,-1.1768114E-2,5.8766636E-3,-7.3111355E-3,1.6019269E-3,7.983392E-3,5.1448727E-4,-5.7370844E-3,-1.0041342E-3,-1.7598193E-2,-1.6884184E-2,-3.173627E-4,-1.5163415E-3,-1.8582522E-4,1.8772824E-2,1.0554816E-2,-3.2037091E-3,4.0510534E-3,-1.190765E-2,-3.2116796E-3,-5.253424E-4,9.608428E-3,9.58361E-3,-8.887834E-3,-2.3819439E-3,1.0434374E-2,9.475214E-3,1.575757E-2,-9.461074E-3,-2.8087483E-3,-9.907732E-4,-4.1956883E-3],"categories":[],"categories_nodes":[],"categories_segments":[],"categories_sizes":[],"default_left":[0,0,0,0,0,0,0,0,0,0,0,0,0,0,0,0,0,0,0,0,0,0,0,0,0,0,0,0,0,0,0,0,0,0,0,0,0,0,0,0,0,0,0,0,0,0,0,0,0,0,0,0,0,0,0,0,0,0,0,0,0,0,0,0,0,0,0,0,0,0,0,0,0,0,0,0,0,0,0,0,0,0,0,0,0,0,0,0,0,0,0,0,0,0,0,0,0,0,0,0,0,0,0,0,0,0,0],"id":11,"left_children":[1,3,5,7,9,11,13,15,17,19,21,23,25,27,29,31,33,35,37,39,41,43,45,47,49,51,53,55,57,-1,-1,59,61,63,-1,65,67,69,-1,71,73,75,77,79,81,83,85,87,89,91,93,95,97,99,101,103,-1,105,-1,-1,-1,-1,-1,-1,-1,-1,-1,-1,-1,-1,-1,-1,-1,-1,-1,-1,-1,-1,-1,-1,-1,-1,-1,-1,-1,-1,-1,-1,-1,-1,-1,-1,-1,-1,-1,-1,-1,-1,-1,-1,-1,-1,-1,-1,-1,-1,-1],"loss_changes":[7.524997E0,6.050833E0,1.7143068E0,2.3716793E0,4.7828608E0,1.5801363E0,6.9137E-1,1.3885489E0,2.5360825E0,5.198204E0,1.6901913E0,1.3920841E0,1.4251025E0,4.7591E-1,1.194191E-2,1.4117198E0,5.465959E-1,1.8262672E0,1.2995822E0,4.3844686E0,2.4142556E0,1.8958187E0,1.3903878E0,1.354938E0,1.5550406E0,1.3171259E0,5.3790677E-1,2.300415E-1,1.1443164E-1,0E0,0E0,1.3144162E0,1.3678651E0,2.1155596E-1,0E0,1.8913682E0,6.945833E-1,9.883337E-1,0E0,4.020113E0,2.7047234E0,2.1526692E0,1.0260949E0,1.5555687E0,1.3803635E0,1.1278188E0,5.781287E-1,1.2037935E0,4.3070674E-2,1.3500986E0,9.800339E-1,1.1833932E0,9.934062E-1,3.8210365E-1,8.515501E-2,1.2018216E-1,0E0,2.125055E-2,0E0,0E0,0E0,0E0,0E0,0E0,0E0,0E0,0E0,0E0,0E0,0E0,0E0,0E0,0E0,0E0,0E0,0E0,0E0,0E0,0E0,0E0,0E0,0E0,0E0,0E0,0E0,0E0,0E0,0E0,0E0,0E0,0E0,0E0,0E0,0E0,0E0,0E0,0E0,0E0,0E0,0E0,0E0,0E0,0E0,0E0,0E0,0E0,0E0],"parents":[2147483647,0,0,1,1,2,2,3,3,4,4,5,5,6,6,7,7,8,8,9,9,10,10,11,11,12,12,13,13,14,14,15,15,16,16,17,17,18,18,19,19,20,20,21,21,22,22,23,23,24,24,25,25,26,26,27,27,28,28,31,31,32,32,33,33,35,35,36,36,37,37,39,39,40,40,41,41,42,42,43,43,44,44,45,45,46,46,47,47,48,48,49,49,50,50,51,51,52,52,53,53,54,54,55,55,57,57],"right_children":[2,4,6,8,10,12,14,16,18,20,22,24,26,28,30,32,34,36,38,40,42,44,46,48,50,52,54,56,58,-1,-1,60,62,64,-1,66,68,70,-1,72,74,76,78,80,82,84,86,88,90,92,94,96,98,100,102,104,-1,106,-1,-1,-1,-1,-1,-1,-1,-1,-1,-1,-1,-1,-1,-1,-1,-1,-1,-1,-1,-1,-1,-1,-1,-1,-1,-1,-1,-1,-1,-1,-1,-1,-1,-1,-1,-1,-1,-1,-1,-1,-1,-1,-1,-1,-1,-1,-1,-1,-1],"split_conditions":[2.5E-1,5.075498E-1,1.25E0,4.380553E-1,7.5E-1,8E-1,6.111111E0,1.1666666E0,2.5E-1,8.888889E-1,1.25E-1,1.3333334E0,1.1666666E0,1.25E-1,5.9678423E-1,1.4285715E-1,1.1111111E-1,1.1666666E0,3.3333334E-1,6.875E0,7.1428573E-1,5.685392E-1,1.1111111E-1,2E0,1.1111111E-1,1.5555556E0,1.1111111E-1,1.1111111E-1,1.1111111E-1,-1.896345E-2,-1.1607895E-2,1.1111111E-1,1.6666667E-1,1.1111111E-1,6.378662E-3,2.857143E-1,1.1111111E-1,1.125E0,1.6749963E-2,1.1111111E-1,6.861069E-1,1.4285715E-1,2.125E0,1.2857143E0,1.3333334E0,3.3333334E-1,1.25E-1,7.777778E-1,5.3589195E-1,2E-1,1.4285715E-1,1.1111112E0,2E-1,1.1111112E0,1.6666667E-1,1.25E-1,-1.8237606E-2,4.011111E1,4.9964045E-3,1.5077753E-3,-2.3014438E-3,2.6287725E-3,7.945648E-3,-9.752765E-3,-7.8464E-4,6.235211E-4,-7.188308E-4,-9.277472E-3,-1.4351787E-3,2.346583E-3,1.1201731E-2,-4.8574244E-4,-3.3139426E-3,2.912647E-4,-2.902183E-3,1.1460057E-3,-1.1768114E-2,5.8766636E-3,-7.3111355E-3,1.6019269E-3,7.983392E-3,5.1448727E-4,-5.7370844E-3,-1.0041342E-3,-1.7598193E-2,-1.6884184E-2,-3.173627E-4,-1.5163415E-3,-1.8582522E-4,1.8772824E-2,1.0554816E-2,-3.2037091E-3,4.0510534E-3,-1.190765E-2,-3.2116796E-3,-5.253424E-4,9.608428E-3,9.58361E-3,-8.887834E-3,-2.3819439E-3,1.0434374E-2,9.475214E-3,1.575757E-2,-9.461074E-3,-2.8087483E-3,-9.907732E-4,-4.1956883E-3],"split_indices":[352,0,310,0,82,199,203,132,80,148,174,352,334,237,0,336,101,342,170,290,263,0,19,71,251,134,318,251,19,0,0,240,151,300,0,243,329,185,0,128,0,201,33,151,178,120,5,277,0,135,126,221,135,68,27,129,0,364,0,0,0,0,0,0,0,0,0,0,0,0,0,0,0,0,0,0,0,0,0,0,0,0,0,0,0,0,0,0,0,0,0,0,0,0,0,0,0,0,0,0,0,0,0,0,0,0,0],"split_type":[0,0,0,0,0,0,0,0,0,0,0,0,0,0,0,0,0,0,0,0,0,0,0,0,0,0,0,0,0,0,0,0,0,0,0,0,0,0,0,0,0,0,0,0,0,0,0,0,0,0,0,0,0,0,0,0,0,0,0,0,0,0,0,0,0,0,0,0,0,0,0,0,0,0,0,0,0,0,0,0,0,0,0,0,0,0,0,0,0,0,0,0,0,0,0,0,0,0,0,0,0,0,0,0,0,0,0],"sum_hessian":[1.41565E5,1.29411E5,1.2154E4,2.7384E4,1.02027E5,1.207E4,8.4E1,6.016E3,2.1368E4,9.0057E4,1.197E4,1.068E4,1.39E3,6.8E1,1.6E1,5.962E3,5.4E1,2.0237E4,1.131E3,8.5057E4,5E3,1.1514E4,4.56E2,9.915E3,7.65E2,1.321E3,6.9E1,4.1E1,2.7E1,1.2E1,4E0,4.749E3,1.213E3,4.7E1,7E0,2.0122E4,1.15E2,1.115E3,1.6E1,5.6994E4,2.8063E4,4.642E3,3.58E2,4.833E3,6.681E3,4.28E2,2.8E1,9.903E3,1.2E1,6.31E2,1.34E2,1.259E3,6.2E1,2.6E1,4.3E1,3.5E1,6E0,2.1E1,6E0,4.511E3,2.38E2,1.077E3,1.36E2,3.9E1,8E0,1.702E4,3.102E3,6.5E1,5E1,1.083E3,3.2E1,5.5709E4,1.285E3,2.7384E4,6.79E2,4.61E3,3.2E1,3.43E2,1.5E1,4.736E3,9.7E1,6.592E3,8.9E1,4.18E2,1E1,2.1E1,7E0,7.723E3,2.18E3,6E0,6E0,5.59E2,7.2E1,7.8E1,5.6E1,1.23E3,2.9E1,5.4E1,8E0,1.8E1,8E0,3.5E1,8E0,2.5E1,1E1,1.1E1,1E1],"tree_param":{"num_deleted":"0","num_feature":"365","num_nodes":"107","size_leaf_vector":"1"}},{"base_weights":[1.8889169E-4,8.029667E-3,-5.4760617E-3,8.9448225E-3,-5.511647E-2,-8.792458E-3,6.7994744E-3,4.0229574E-2,7.5377985E-3,-5.9151053E-2,2.0061903E-2,-6.2911543E-3,-3.5000026E-2,-1.10097425E-2,1.8515764E-2,3.810263E-2,2.8646463E-1,5.950538E-3,3.949927E-2,-4.0039018E-2,-1.577149E-1,-9.323582E-3,1.4429681E-2,-3.147799E-2,-1.0222042E-1,4.316029E-4,-4.663984E-2,1.3002564E-2,5.1441222E-2,3.688604E-2,1.7745411E-2,1.8012038E-2,4.425061E-3,8.22298E-3,-1.803361E-2,2.5169361E-2,7.960498E-2,-3.2624256E-2,-2.0360143E-1,-1.7645217E-1,6.741301E-3,-1.1690527E-2,2.1509169E-2,4.428291E-3,4.154183E-2,-3.4447074E-2,6.478684E-2,-1.13159284E-1,1.51749E-2,-3.1619489E-3,1.448907E-1,-5.045878E-2,1.1234231E-2,4.2500198E-2,6.6899695E-3,8.189924E-2,2.7493691E-2,1.7920596E-3,1.9013518E-2,5.353009E-4,-7.375888E-4,-7.954181E-4,-7.2069415E-3,8.9816045E-4,6.93603E-3,4.183858E-3,-1.7986815E-2,6.6017034E-3,-1.965865E-3,-1.43624395E-2,-2.645619E-3,-9.825985E-3,8.8176393E-4,-6.853048E-4,1.0621872E-3,4.3816026E-4,3.2541954E-3,3.4527824E-4,-6.18796E-3,2.2808078E-3,-5.4798266E-3,-2.1757043E-3,-1.6989361E-4,4.6261586E-3,-4.943933E-3,-1.0222989E-2,-3.4647908E-3,-7.6088814E-5,-1.0716526E-2,9.083624E-3,-1.0038423E-2,-2.6130893E-3,1.7556412E-2,1.8644127E-3,1.05816545E-2,1.5630762E-4,3.6323424E-3,4.5890626E-3,-9.501085E-3,2.7421087E-3,-2.543828E-3],"categories":[],"categories_nodes":[],"categories_segments":[],"categories_sizes":[],"default_left":[0,0,0,0,0,0,0,0,0,0,0,0,0,0,0,0,0,0,0,0,0,0,0,0,0,0,0,0,0,0,0,0,0,0,0,0,0,0,0,0,0,0,0,0,0,0,0,0,0,0,0,0,0,0,0,0,0,0,0,0,0,0,0,0,0,0,0,0,0,0,0,0,0,0,0,0,0,0,0,0,0,0,0,0,0,0,0,0,0,0,0,0,0,0,0,0,0,0,0,0,0],"id":12,"left_children":[1,3,5,7,9,11,13,15,17,19,-1,21,23,25,27,29,31,33,35,37,39,41,43,45,47,49,51,53,55,57,-1,-1,-1,59,61,63,65,67,69,71,-1,73,75,77,79,81,83,85,-1,87,89,91,-1,93,95,97,99,-1,-1,-1,-1,-1,-1,-1,-1,-1,-1,-1,-1,-1,-1,-1,-1,-1,-1,-1,-1,-1,-1,-1,-1,-1,-1,-1,-1,-1,-1,-1,-1,-1,-1,-1,-1,-1,-1,-1,-1,-1,-1,-1,-1],"loss_changes":[6.2891803E0,3.4323366E0,3.346497E0,2.5767946E0,1.5741248E0,4.2423224E0,3.6483822E0,1.314075E0,2.8420212E0,1.5820229E0,0E0,3.7122943E0,1.3333201E0,2.8285332E0,1.9141157E0,9.56434E-1,2.9806602E-1,2.9090688E0,1.5222707E0,8.522929E-1,7.601094E-1,3.7613034E0,2.045126E0,1.5326719E0,1.262058E0,2.7269132E0,1.7531719E0,1.6821414E0,1.1020827E0,8.863759E-1,0E0,0E0,0E0,2.7813842E0,1.2369021E0,1.5972399E0,1.2629337E0,7.4704087E-1,3.76845E-1,5.022216E-1,0E0,3.1773872E0,2.0405397E0,1.7503165E0,1.2540867E0,1.4634256E0,7.331609E-1,1.088217E0,0E0,1.7750688E0,1.6392663E0,1.2136536E0,0E0,1.3998613E0,1.7493075E0,1.7970023E0,1.8178482E0,0E0,0E0,0E0,0E0,0E0,0E0,0E0,0E0,0E0,0E0,0E0,0E0,0E0,0E0,0E0,0E0,0E0,0E0,0E0,0E0,0E0,0E0,0E0,0E0,0E0,0E0,0E0,0E0,0E0,0E0,0E0,0E0,0E0,0E0,0E0,0E0,0E0,0E0,0E0,0E0,0E0,0E0,0E0,0E0],"parents":[2147483647,0,0,1,1,2,2,3,3,4,4,5,5,6,6,7,7,8,8,9,9,11,11,12,12,13,13,14,14,15,15,16,16,17,17,18,18,19,19,20,20,21,21,22,22,23,23,24,24,25,25,26,26,27,27,28,28,29,29,33,33,34,34,35,35,36,36,37,37,38,38,39,39,41,41,42,42,43,43,44,44,45,45,46,46,47,47,49,49,50,50,51,51,53,53,54,54,55,55,56,56],"right_children":[2,4,6,8,10,12,14,16,18,20,-1,22,24,26,28,30,32,34,36,38,40,42,44,46,48,50,52,54,56,58,-1,-1,-1,60,62,64,66,68,70,72,-1,74,76,78,80,82,84,86,-1,88,90,92,-1,94,96,98,100,-1,-1,-1,-1,-1,-1,-1,-1,-1,-1,-1,-1,-1,-1,-1,-1,-1,-1,-1,-1,-1,-1,-1,-1,-1,-1,-1,-1,-1,-1,-1,-1,-1,-1,-1,-1,-1,-1,-1,-1,-1,-1,-1,-1],"split_conditions":[5.434847E-1,2E-1,7.7777777E0,4.1092834E-1,1.6666666E0,3.3333334E-1,8.333333E-1,1.125E0,8.888889E-1,4.011111E1,2.0061903E-2,1E0,1.125E0,1.6666667E-1,2.142857E0,3E0,1.6666667E-1,2.5E-1,1.25E-1,1.25E-1,1.1111111E-1,8.5714287E-1,7.714286E0,1.4285715E-1,2.4E0,4E-1,1.25E0,5.609785E-1,8.111111E0,3.375E0,1.7745411E-2,1.8012038E-2,4.425061E-3,3.3333334E-1,1.125E0,1.1111112E0,1.5E0,3.675695E-1,1.1111111E-1,1.1111111E-1,6.741301E-3,1.25E-1,3.3333334E-1,1.1666666E0,1.6666667E-1,1.1111112E0,1.125E0,1.4285715E-1,1.51749E-2,7.5E-1,1.1111111E-1,2E0,1.1234231E-2,1.125E0,8E-1,1.4285715E-1,2E-1,1.7920596E-3,1.9013518E-2,5.353009E-4,-7.375888E-4,-7.954181E-4,-7.2069415E-3,8.9816045E-4,6.93603E-3,4.183858E-3,-1.7986815E-2,6.6017034E-3,-1.965865E-3,-1.43624395E-2,-2.645619E-3,-9.825985E-3,8.8176393E-4,-6.853048E-4,1.0621872E-3,4.3816026E-4,3.2541954E-3,3.4527824E-4,-6.18796E-3,2.2808078E-3,-5.4798266E-3,-2.1757043E-3,-1.6989361E-4,4.6261586E-3,-4.943933E-3,-1.0222989E-2,-3.4647908E-3,-7.6088814E-5,-1.0716526E-2,9.083624E-3,-1.0038423E-2,-2.6130893E-3,1.7556412E-2,1.8644127E-3,1.05816545E-2,1.5630762E-4,3.6323424E-3,4.5890626E-3,-9.501085E-3,2.7421087E-3,-2.543828E-3],"split_indices":[0,122,203,0,76,237,348,204,91,364,0,48,27,60,177,239,2,352,246,288,28,17,142,193,271,39,215,0,203,312,0,0,0,34,163,350,220,0,53,44,0,148,57,114,180,83,133,133,0,305,251,39,0,239,42,267,176,0,0,0,0,0,0,0,0,0,0,0,0,0,0,0,0,0,0,0,0,0,0,0,0,0,0,0,0,0,0,0,0,0,0,0,0,0,0,0,0,0,0,0,0],"split_type":[0,0,0,0,0,0,0,0,0,0,0,0,0,0,0,0,0,0,0,0,0,0,0,0,0,0,0,0,0,0,0,0,0,0,0,0,0,0,0,0,0,0,0,0,0,0,0,0,0,0,0,0,0,0,0,0,0,0,0,0,0,0,0,0,0,0,0,0,0,0,0,0,0,0,0,0,0,0,0,0,0,0,0,0,0,0,0,0,0,0,0,0,0,0,0,0,0,0,0,0,0],"sum_hessian":[1.41591E5,5.939E4,8.2201E4,5.8542E4,8.48E2,6.4717E4,1.7484E4,2.519E3,5.6023E4,8.41E2,7E0,5.9079E4,5.638E3,6.938E3,1.0546E4,2.498E3,2.1E1,5.3373E4,2.65E3,7.05E2,1.36E2,5.1537E4,7.542E3,5.358E3,2.8E2,5.252E3,1.686E3,9.034E3,1.512E3,2.489E3,9E0,1.5E1,6E0,4.8754E4,4.619E3,1.953E3,6.97E2,6.75E2,3E1,1.28E2,8E0,4.7863E4,3.674E3,5.51E3,2.032E3,5.198E3,1.6E2,2.73E2,7E0,5.125E3,1.27E2,1.663E3,2.3E1,1.592E3,7.442E3,6.65E2,8.47E2,2.482E3,7E0,4.3999E4,4.755E3,4.543E3,7.6E1,1.837E3,1.16E2,6.91E2,6E0,2.6E1,6.49E2,1.9E1,1.1E1,1.16E2,1.2E1,4.5103E4,2.76E3,2.843E3,8.31E2,5.406E3,1.04E2,1.979E3,5.3E1,4.023E3,1.175E3,1.37E2,2.3E1,8.8E1,1.85E2,5.086E3,3.9E1,1.15E2,1.2E1,1.656E3,7E0,1.545E3,4.7E1,7.061E3,3.81E2,6.42E2,2.3E1,6.28E2,2.19E2],"tree_param":{"num_deleted":"0","num_feature":"365","num_nodes":"101","size_leaf_vector":"1"}},{"base_weights":[-5.436043E-4,2.5377902E-3,-1.5493718E-2,4.3978095E-3,-1.796396E-2,-1.1900448E-2,-4.1810527E-2,3.1015205E-3,3.4507792E-2,-1.4382622E-2,-6.6748574E-2,-1.3623066E-2,4.164751E-2,-4.033314E-2,-1.5779456E-2,5.1263687E-3,-1.4824186E-2,3.3206597E-2,3.0081353E-1,-1.9893894E-2,1.975803E-2,-9.180785E-2,2.3298092E-2,-1.7491987E-2,1.2175394E-2,2.5951814E-2,1.8450786E-1,-3.6666006E-2,-1.461671E-1,6.8080956E-3,-1.7457204E-2,-1.4365688E-2,-3.23152E-1,-8.286498E-3,4.132312E-2,1.8686326E-2,8.365779E-3,-1.7638087E-2,-9.6170165E-2,2.6818046E-2,-1.7378147E-1,-5.8209416E-2,-1.3826653E-1,6.854466E-2,-1.3507527E-1,-1.5712159E-2,-7.348343E-2,1.5156702E-2,-2.2406363E-1,1.7616602E-2,1.5945924E-2,2.8015313E-1,4.7249798E-2,-3.7788875E-2,1.9125681E-2,-2.0473704E-1,-4.7083158E-2,2.2138363E-4,1.2123532E-3,-1.4878972E-3,7.04878E-4,-8.6806034E-4,1.3363365E-3,-2.3203501E-2,-1.04863215E-2,2.7002135E-4,-4.908776E-3,1.8247169E-3,6.523189E-3,-9.073116E-4,1.4567426E-2,-5.7532145E-3,8.115376E-3,1.5438066E-3,-1.2628237E-2,-6.5345475E-3,-1.8882433E-2,-1.5682018E-3,-6.557092E-3,-8.064581E-3,4.9112325E-5,4.103964E-3,-1.8427743E-2,-1.5785402E-2,-1.7658232E-3,-7.245038E-4,-5.1692384E-3,-1.3809882E-2,-3.2599305E-3,-1.1549451E-4,2.5184618E-3,-1.384976E-2,-7.257674E-3,1.3235708E-3,-1.19131245E-2,1.5999394E-2,1.0867178E-2,1.2620206E-2,-1.4479548E-3,-1.3223769E-3,-3.3727603E-3,-1.2392259E-2,-4.113575E-3,-4.4903925E-5,-4.599786E-3],"categories":[],"categories_nodes":[],"categories_segments":[],"categories_sizes":[],"default_left":[0,0,0,0,0,0,0,0,0,0,0,0,0,0,0,0,0,0,0,0,0,0,0,0,0,0,0,0,0,0,0,0,0,0,0,0,0,0,0,0,0,0,0,0,0,0,0,0,0,0,0,0,0,0,0,0,0,0,0,0,0,0,0,0,0,0,0,0,0,0,0,0,0,0,0,0,0,0,0,0,0,0,0,0,0,0,0,0,0,0,0,0,0,0,0,0,0,0,0,0,0,0,0,0,0],"id":13,"left_children":[1,3,5,7,9,11,13,15,17,19,21,23,25,27,-1,29,31,33,35,37,39,41,43,45,47,49,51,53,55,57,59,61,63,65,67,-1,-1,69,71,73,75,77,79,81,83,85,87,89,91,93,-1,95,97,99,-1,101,103,-1,-1,-1,-1,-1,-1,-1,-1,-1,-1,-1,-1,-1,-1,-1,-1,-1,-1,-1,-1,-1,-1,-1,-1,-1,-1,-1,-1,-1,-1,-1,-1,-1,-1,-1,-1,-1,-1,-1,-1,-1,-1,-1,-1,-1,-1,-1,-1],"loss_changes":[6.5111346E0,4.468789E0,2.2837877E0,4.1934443E0,1.7025468E0,1.9606712E0,1.1672244E0,3.7388117E0,1.5316296E0,1.7089568E0,1.5050297E0,2.0552893E0,1.4831246E0,1.1175928E0,0E0,3.5151107E0,1.4756083E0,1.4865489E0,1.780101E-1,1.3446097E0,1.7274E0,8.1000566E-1,1.0472608E0,1.7837973E0,1.8930991E0,1.45625E0,8.5327077E-1,1.3206742E0,5.552025E-1,3.5756972E0,2.4899788E0,1.2852621E0,1.9908369E-1,8.891598E-1,1.5865927E0,0E0,0E0,1.1952114E0,1.1057308E0,1.3853846E0,3.662436E-1,5.921657E-1,7.0063734E-1,6.8658894E-1,5.800657E-1,1.8586674E0,9.1721296E-1,1.6314596E0,1.1982083E-1,1.3206943E0,0E0,6.155348E-2,4.3360576E-1,9.3563294E-1,0E0,3.0920005E-1,7.567029E-2,0E0,0E0,0E0,0E0,0E0,0E0,0E0,0E0,0E0,0E0,0E0,0E0,0E0,0E0,0E0,0E0,0E0,0E0,0E0,0E0,0E0,0E0,0E0,0E0,0E0,0E0,0E0,0E0,0E0,0E0,0E0,0E0,0E0,0E0,0E0,0E0,0E0,0E0,0E0,0E0,0E0,0E0,0E0,0E0,0E0,0E0,0E0,0E0],"parents":[2147483647,0,0,1,1,2,2,3,3,4,4,5,5,6,6,7,7,8,8,9,9,10,10,11,11,12,12,13,13,15,15,16,16,17,17,18,18,19,19,20,20,21,21,22,22,23,23,24,24,25,25,26,26,27,27,28,28,29,29,30,30,31,31,32,32,33,33,34,34,37,37,38,38,39,39,40,40,41,41,42,42,43,43,44,44,45,45,46,46,47,47,48,48,49,49,51,51,52,52,53,53,55,55,56,56],"right_children":[2,4,6,8,10,12,14,16,18,20,22,24,26,28,-1,30,32,34,36,38,40,42,44,46,48,50,52,54,56,58,60,62,64,66,68,-1,-1,70,72,74,76,78,80,82,84,86,88,90,92,94,-1,96,98,100,-1,102,104,-1,-1,-1,-1,-1,-1,-1,-1,-1,-1,-1,-1,-1,-1,-1,-1,-1,-1,-1,-1,-1,-1,-1,-1,-1,-1,-1,-1,-1,-1,-1,-1,-1,-1,-1,-1,-1,-1,-1,-1,-1,-1,-1,-1,-1,-1,-1,-1],"split_conditions":[3.3333334E-1,3.3333334E-1,2E-1,2.142857E0,1.3333334E0,2.5E-1,2.25E0,6.3412815E-1,1.1428572E0,1.6666667E-1,5.714286E-1,8E-1,2.5E-1,6E-1,-1.5779456E-2,2E-1,1.5714285E0,7.2222223E0,3.3333334E-1,2.5E-1,1.1111111E-1,4.8333335E0,5.9678423E-1,4.2857143E-1,1.25E-1,1.25E-1,1.25E-1,1.2E0,1.25E-1,7.7777777E0,1.1111111E-1,1.1666666E0,1.1111111E-1,1.4285715E-1,4.06E1,1.8686326E-2,8.365779E-3,2E0,1.3333334E0,8.75E-1,6.3412815E-1,1.25E-1,1.1111111E-1,1.1111111E-1,1.125E0,3E0,1.1111112E0,5.555556E-1,1.25E-1,1.4285715E-1,1.5945924E-2,1.1111111E-1,5.35548E-1,1.1111111E-1,1.9125681E-2,1.25E-1,1.25E-1,2.2138363E-4,1.2123532E-3,-1.4878972E-3,7.04878E-4,-8.6806034E-4,1.3363365E-3,-2.3203501E-2,-1.04863215E-2,2.7002135E-4,-4.908776E-3,1.8247169E-3,6.523189E-3,-9.073116E-4,1.4567426E-2,-5.7532145E-3,8.115376E-3,1.5438066E-3,-1.2628237E-2,-6.5345475E-3,-1.8882433E-2,-1.5682018E-3,-6.557092E-3,-8.064581E-3,4.9112325E-5,4.103964E-3,-1.8427743E-2,-1.5785402E-2,-1.7658232E-3,-7.245038E-4,-5.1692384E-3,-1.3809882E-2,-3.2599305E-3,-1.1549451E-4,2.5184618E-3,-1.384976E-2,-7.257674E-3,1.3235708E-3,-1.19131245E-2,1.5999394E-2,1.0867178E-2,1.2620206E-2,-1.4479548E-3,-1.3223769E-3,-3.3727603E-3,-1.2392259E-2,-4.113575E-3,-4.4903925E-5,-4.599786E-3],"split_indices":[243,352,34,177,352,17,52,0,135,278,312,299,181,10,0,237,342,203,14,194,76,103,0,122,77,147,68,76,68,142,349,348,53,362,364,0,0,71,191,298,0,31,93,116,41,84,290,88,213,145,0,62,0,251,0,227,225,0,0,0,0,0,0,0,0,0,0,0,0,0,0,0,0,0,0,0,0,0,0,0,0,0,0,0,0,0,0,0,0,0,0,0,0,0,0,0,0,0,0,0,0,0,0,0,0],"split_type":[0,0,0,0,0,0,0,0,0,0,0,0,0,0,0,0,0,0,0,0,0,0,0,0,0,0,0,0,0,0,0,0,0,0,0,0,0,0,0,0,0,0,0,0,0,0,0,0,0,0,0,0,0,0,0,0,0,0,0,0,0,0,0,0,0,0,0,0,0,0,0,0,0,0,0,0,0,0,0,0,0,0,0,0,0,0,0,0,0,0,0,0,0,0,0,0,0,0,0,0,0,0,0,0,0],"sum_hessian":[1.41339E5,1.17186E5,2.4153E4,1.07439E5,9.747E3,2.1252E4,2.901E3,1.03005E5,4.434E3,9.081E3,6.66E2,2.059E4,6.62E2,2.886E3,1.5E1,9.2551E4,1.0454E4,4.413E3,2.1E1,7.819E3,1.262E3,5.21E2,1.45E2,1.7905E4,2.685E3,5.97E2,6.5E1,2.79E3,9.6E1,8.6137E4,6.414E3,1.0439E4,1.5E1,7.22E2,3.691E3,1.3E1,8E0,7.595E3,2.24E2,1.218E3,4.4E1,3.03E2,2.18E2,1.13E2,3.2E1,1.7354E4,5.51E2,2.652E3,3.3E1,5.81E2,1.6E1,3.8E1,2.7E1,2.783E3,7E0,6E1,3.6E1,7.5792E4,1.0345E4,4.615E3,1.799E3,9.73E3,7.09E2,6E0,9E0,6.27E2,9.5E1,3.502E3,1.89E2,7.583E3,1.2E1,2.09E2,1.5E1,1.201E3,1.7E1,3.7E1,7E0,2.22E2,8.1E1,1.87E2,3.1E1,1.1E2,3E0,1.1E1,2.1E1,1.7116E4,2.38E2,2.1E1,5.3E2,1.773E3,8.79E2,1.9E1,1.4E1,5.62E2,1.9E1,2.2E1,1.6E1,7E0,2E1,2.014E3,7.69E2,4.4E1,1.6E1,1.8E1,1.8E1],"tree_param":{"num_deleted":"0","num_feature":"365","num_nodes":"105","size_leaf_vector":"1"}},{"base_weights":[-3.4689796E-4,-1.1796735E-3,4.3125298E-2,5.7672802E-3,-6.2137297E-3,2.9249113E-2,1.24868676E-1,6.5717013E-3,-4.9351733E-2,-5.564419E-3,-6.193371E-2,2.2361126E-2,1.5109996E-1,1.7598796E-1,7.315951E-2,9.000852E-3,-1.1127571E-2,-5.3056404E-2,1.8233148E-2,-4.7075255E-3,-4.6854477E-2,-1.8792387E-2,-9.94403E-2,1.6774045E-2,1.2168423E-1,2.2629164E-1,8.720993E-2,1.132863E-1,2.2884732E-1,1.1791118E-1,-3.5604797E-2,9.861949E-3,-4.5034442E-2,-2.1699194E-2,2.0060536E-2,-3.843748E-2,-1.2734896E-1,-8.311432E-3,7.0119626E-3,-4.0495854E-2,-1.5641078E-1,-4.6321932E-2,7.57515E-2,-1.0464479E-1,1.5007362E-2,1.3824381E-2,2.2445701E-1,1.6995603E-1,7.28649E-3,2.5676894E-1,-1.1605908E-3,3.5839178E-2,1.1501203E-2,1.7693017E-1,-3.3418603E-2,2.532596E-1,3.904252E-2,1.6797148E-1,-7.1479045E-3,3.3446614E-2,-1.9044642E-1,4.0416015E-4,1.6653178E-3,-1.8401848E-3,-9.492496E-3,-1.2352566E-3,5.508725E-3,1.5808198E-3,-3.04381E-3,-2.221683E-3,7.528465E-3,-2.2750923E-3,-1.00718625E-2,-5.125113E-4,9.4465696E-4,5.8702205E-4,-9.0281386E-4,-1.8815622E-3,-1.4337962E-2,-1.0983491E-2,1.1617435E-3,-1.7342394E-3,-1.3477518E-2,1.119865E-3,9.629432E-3,-4.46716E-3,-1.0830801E-2,7.9812686E-4,-1.2246135E-2,1.4950544E-2,-5.7248264E-3,1.0468714E-2,1.1034112E-3,1.9615577E-3,-1.0501847E-2,1.0061528E-2,1.5466702E-2,1.9204274E-6,5.0651175E-3,3.088285E-3,1.0632387E-2,-1.9378964E-4,-7.561875E-3,1.3337788E-2,6.7579183E-3,-1.1144528E-3,4.8685414E-3,9.09758E-3,-7.058392E-3,-3.4684397E-3,3.6527307E-3,-1.3203494E-3,5.4722815E-3,2.109076E-5,-1.4502409E-2],"categories":[],"categories_nodes":[],"categories_segments":[],"categories_sizes":[],"default_left":[0,0,0,0,0,0,0,0,0,0,0,0,0,0,0,0,0,0,0,0,0,0,0,0,0,0,0,0,0,0,0,0,0,0,0,0,0,0,0,0,0,0,0,0,0,0,0,0,0,0,0,0,0,0,0,0,0,0,0,0,0,0,0,0,0,0,0,0,0,0,0,0,0,0,0,0,0,0,0,0,0,0,0,0,0,0,0,0,0,0,0,0,0,0,0,0,0,0,0,0,0,0,0,0,0,0,0,0,0,0,0,0,0,0,0],"id":14,"left_children":[1,3,5,7,9,11,13,15,17,19,21,23,25,27,29,31,33,35,-1,37,39,41,43,45,47,49,51,53,55,57,59,61,63,65,67,69,71,73,75,77,79,81,83,85,-1,87,89,91,93,95,-1,97,-1,99,101,103,105,107,109,111,113,-1,-1,-1,-1,-1,-1,-1,-1,-1,-1,-1,-1,-1,-1,-1,-1,-1,-1,-1,-1,-1,-1,-1,-1,-1,-1,-1,-1,-1,-1,-1,-1,-1,-1,-1,-1,-1,-1,-1,-1,-1,-1,-1,-1,-1,-1,-1,-1,-1,-1,-1,-1,-1,-1],"loss_changes":[5.118437E0,4.8514366E0,3.0125403E0,2.5846105E0,2.9100227E0,1.9056362E0,1.0125675E0,2.4700885E0,1.2957554E0,2.8131013E0,1.4982204E0,1.1929028E0,5.738182E-1,6.283679E-1,9.390706E-1,2.3507824E0,2.2862544E0,9.0062594E-1,0E0,3.2900186E0,1.1229317E0,1.1248412E0,1.0461707E0,1.2466112E0,6.3167095E-1,4.2501283E-1,4.8375326E-1,8.386061E-1,4.7926378E-1,8.5515785E-1,6.072847E-1,2.0735006E0,9.411185E-1,2.054139E0,1.6428707E0,7.91569E-1,8.231411E-1,3.1423497E0,2.1717196E0,1.0728824E0,1.0082846E0,8.6426955E-1,6.0563415E-1,8.2900286E-1,0E0,1.1136938E0,7.373215E-1,4.669628E-1,2.4363011E-1,1.1338544E-1,0E0,1.1600782E-1,0E0,2.5052E-1,9.542622E-2,1.2941027E-1,4.5802243E-2,4.3421888E-1,1.996496E-1,1.8112323E-1,3.3275044E-1,0E0,0E0,0E0,0E0,0E0,0E0,0E0,0E0,0E0,0E0,0E0,0E0,0E0,0E0,0E0,0E0,0E0,0E0,0E0,0E0,0E0,0E0,0E0,0E0,0E0,0E0,0E0,0E0,0E0,0E0,0E0,0E0,0E0,0E0,0E0,0E0,0E0,0E0,0E0,0E0,0E0,0E0,0E0,0E0,0E0,0E0,0E0,0E0,0E0,0E0,0E0,0E0,0E0,0E0],"parents":[2147483647,0,0,1,1,2,2,3,3,4,4,5,5,6,6,7,7,8,8,9,9,10,10,11,11,12,12,13,13,14,14,15,15,16,16,17,17,19,19,20,20,21,21,22,22,23,23,24,24,25,25,26,26,27,27,28,28,29,29,30,30,31,31,32,32,33,33,34,34,35,35,36,36,37,37,38,38,39,39,40,40,41,41,42,42,43,43,45,45,46,46,47,47,48,48,49,49,51,51,53,53,54,54,55,55,56,56,57,57,58,58,59,59,60,60],"right_children":[2,4,6,8,10,12,14,16,18,20,22,24,26,28,30,32,34,36,-1,38,40,42,44,46,48,50,52,54,56,58,60,62,64,66,68,70,72,74,76,78,80,82,84,86,-1,88,90,92,94,96,-1,98,-1,100,102,104,106,108,110,112,114,-1,-1,-1,-1,-1,-1,-1,-1,-1,-1,-1,-1,-1,-1,-1,-1,-1,-1,-1,-1,-1,-1,-1,-1,-1,-1,-1,-1,-1,-1,-1,-1,-1,-1,-1,-1,-1,-1,-1,-1,-1,-1,-1,-1,-1,-1,-1,-1,-1,-1,-1,-1,-1,-1],"split_conditions":[2E0,5.434847E-1,1.6666667E-1,2E-1,1.4285715E-1,3.5E0,7.111111E0,1.25E-1,1.6666666E0,1.1111111E-1,5.9678423E-1,2.142857E0,1.6666667E-1,1.6666667E-1,8.111111E0,2.5E-1,8.333333E-1,4.011111E1,1.8233148E-2,6.857143E0,8E-1,7.111111E0,2.2222222E-1,3.3333334E-1,1.1111111E-1,1.1111111E-1,1.1111111E-1,7.111111E0,1.25E-1,1.6666667E-1,1.1111111E-1,1.4E0,1.25E-1,6E-1,1.25E-1,1.4285715E-1,4.8127717E-1,8.5714287E-1,6.377754E-1,1.1111111E-1,2.857143E-1,2E-1,1.1111111E-1,1.25E-1,1.5007362E-2,1.6666667E-1,1.25E-1,5.988693E-1,1.25E-1,1.6666667E-1,-1.1605908E-3,9.111111E0,1.1501203E-2,3.142857E0,1.6666667E-1,1.1111111E-1,5.204518E-1,1.25E-1,1.125E0,1.4285715E-1,4.9491373E-1,4.0416015E-4,1.6653178E-3,-1.8401848E-3,-9.492496E-3,-1.2352566E-3,5.508725E-3,1.5808198E-3,-3.04381E-3,-2.221683E-3,7.528465E-3,-2.2750923E-3,-1.00718625E-2,-5.125113E-4,9.4465696E-4,5.8702205E-4,-9.0281386E-4,-1.8815622E-3,-1.4337962E-2,-1.0983491E-2,1.1617435E-3,-1.7342394E-3,-1.3477518E-2,1.119865E-3,9.629432E-3,